V1,V2,V3,V4
-0.8,0.8,0.1950301,2901.27436355075
-0.771749946137996,0.867618621473612,0.381679474154419,2266.76497230796
-0.749761553413352,0.91325387248493,0.486344388165249,2052.05928160807
-0.731375417482132,0.946276043776692,0.544038054656083,1975.21673261772
-0.715067674092367,0.972054319243064,0.574822905885907,1943.66906525059
-0.699965119496271,0.993665262739328,0.590194630375755,1927.02366282421
-0.685567376177374,1.01287177492438,0.596740203103183,1915.30172182648
-0.671587694803889,1.0306840320366,0.598233923743583,1905.22680282107
-0.657861734316161,1.04768090181003,0.596838439099029,1895.72302017403
-0.644295293242244,1.06419411364699,0.593792924661989,1886.43698560415
-0.63083435992813,1.08041378746972,0.589807410194276,1877.25252543073
-0.617447951426389,1.09644890137591,0.585288726875881,1868.13135015483
-0.604118280240431,1.11236193938956,0.580469974214479,1859.06074231061
-0.590835119903859,1.12818874449886,0.575484704122276,1850.03638108041
-0.577592576477358,1.1439498943762,0.570409428127108,1841.05670318455
-0.564387238627727,1.15965721962537,0.565287973852554,1832.12105141761
-0.551217117629574,1.1753175387142,0.560145441194014,1823.22906676326
-0.538081039989857,1.19093479807781,0.554996199157686,1814.38048880698
-0.52497829942372,1.20651129839042,0.549848468020677,1805.57509020327
-0.511908457437684,1.22204839721494,0.544706944892304,1796.81265515608
-0.498871229064323,1.23754691161888,0.539574308151274,1788.09297235013
-0.485866417388444,1.2530073488721,0.534452079482733,1779.41583262666
-0.472893876030619,1.26843003863603,0.529341117822338,1770.78102821701
-0.459953487650178,1.28381520870784,0.524241902384379,1762.18835248764
-0.447045151627307,1.29916302842179,0.519154694835792,1753.6375998531
-0.434168777004733,1.31447363351833,0.514079632221225,1745.12856574419
-0.421324278443131,1.32974714039423,0.509016780208679,1736.66104659416
-0.408511573903391,1.34498365426803,0.503966163599005,1728.23483983102
-0.395730583318371,1.3601832738591,0.498927783807651,1719.84974387167
-0.382981227831611,1.37534609406894,0.493901628881573,1711.50555811676
-0.370263429360925,1.39047220751776,0.488887679238802,1703.20208294585
-0.357577110348147,1.40556170542523,0.483885910957131,1694.93911971255
-0.344922193615535,1.42061467811528,0.478896297658433,1686.71647073977
-0.332298602283297,1.43563121530564,0.473918811588305,1678.53393931497
-0.319706259722141,1.45061140627399,0.468953424234614,1670.3913296855
-0.307145089525887,1.4655553399533,0.464000106681852,1662.28844705384
-0.294615015495583,1.48046310498681,0.459058829814104,1654.22509757303
-0.282115961630207,1.49533478975963,0.454129564431272,1646.20108834195
-0.269647852121147,1.51017048241717,0.449212281315596,1638.21622740075
-0.257210611348847,1.52497027087588,0.444306951269698,1630.27032372625
-0.244804163880688,1.53973424282964,0.4394135451383,1622.36318722737
-0.232428434469588,1.55446248575364,0.434532033820605,1614.49462874057
-0.220083348053001,1.56915508690681,0.429662388277306,1606.66446002533
-0.207768829752158,1.58381213333347,0.424804579534534,1598.87249375966
-0.195484804871442,1.59843371186449,0.419958578686047,1591.11854353558
-0.183231198897832,1.61301990911812,0.415124356894408,1583.40242385473
-0.171007937500405,1.62757081150077,0.410301885391587,1575.72395012384
-0.158814946529853,1.64208650520762,0.405491135479234,1568.08293865039
-0.146652152018026,1.65656707622322,0.400692078528761,1560.47920663819
-0.134519480177469,1.67101261032202,0.395904685981319,1552.91257218298
-0.122416857400983,1.68542319306893,0.391128929347707,1545.38285426812
-0.110344210261179,1.6997989098198,0.386364780208252,1537.88987276023
-0.0983014655100329,1.71413984572201,0.381612210212666,1530.43344840489
-0.0862885500784508,1.72844608571493,0.376871191079891,1523.01340282235
-0.0743053910758285,1.74271771453043,0.372141694597942,1515.62955850326
-0.0623519157896163,1.75695481669342,0.367423692623737,1508.28173880445
-0.0504280516848835,1.77115747652233,0.36271715708294,1500.96976794463
-0.0385337264038841,1.78532577812963,0.358022059969789,1493.69347100029
-0.0266688677656244,1.79945980542233,0.353338373346929,1486.4526739014
-0.0148334037654312,1.81355964210245,0.348666069345251,1479.24720342736
-0.00302726257452045,1.82762537166759,0.34400512016372,1472.07688720276
0.00874962746043166,1.84165707741137,0.33935549806921,1464.94155369331
0.0204973378177178,1.85565484242394,0.334717175396341,1457.84103220171
0.0322159398010268,1.86961874959249,0.330090124547312,1450.77515286358
0.0439055045398703,1.88354888160176,0.325474317991734,1443.74374664341
0.0555661029900082,1.89744532093449,0.320869728266467,1436.74664533046
0.0671978059338731,1.91130814987194,0.316276327975458,1429.78368153482
0.0788006839809935,1.92513745049439,0.311694089789573,1422.8546886833
0.0903748075684166,1.93893330468162,0.307122986446437,1415.95950101557
0.101920246961129,1.95269579411339,0.302562990750266,1409.09795358006
0.113437072252478,1.96642500026997,0.298014075571712,1402.26988223013
0.124925353364589,1.98012100443256,0.293476213847694,1395.47512362007
0.136385160048786,1.99378388768383,0.288949378581239,1388.71351520121
0.147816561886007,2.00741373090839,0.28443354284132,1381.98489521805
0.159219628287223,2.02101061479327,0.279928679762696,1375.28910270436
0.170594428493848,2.03457461982841,0.275434762545748,1368.62597747935
0.181941031578158,2.04810582630712,0.270951764456324,1361.99536014384
0.193259506443704,2.06160431432658,0.266479658825574,1355.39709207641
0.20454992182572,2.07507016378835,0.262018419049793,1348.83101542967
0.215812346291538,2.08850345439876,0.257568018590261,1342.29697312642
0.227046848240997,2.10190426566948,0.253128430973086,1335.79480885591
0.238253495906853,2.11527267691793,0.248699629789043,1329.32436707013
0.249432357355184,2.12860876726781,0.244281588693419,1322.88549298004
0.260583500485801,2.1419126156495,0.239874281405851,1316.47803255193
0.271706993032652,2.15518430080063,0.235477681710174,1310.10183250365
0.282802902564228,2.16842390126645,0.231091763454262,1303.75674030102
0.293871296483968,2.18163149540036,0.22671650054987,1297.44260415415
0.304912242030657,2.19480716136439,0.222351866972479,1291.15927301378
0.315925806278838,2.2079509771296,0.217997836761141,1284.90659656771
0.326912056139202,2.22106302047663,0.213654384018326,1278.68442523721
0.337871058358997,2.23414336899609,0.20932148290976,1272.49261017338
0.348802879522424,2.24719210008908,0.204999107664278,1266.33100325365
0.359707586051033,2.26020929096763,0.200687232573665,1260.1994570782
0.370585244204123,2.27319501865515,0.196385831992506,1254.09782496646
0.381435920079141,2.28614935998692,0.192094880338029,1248.02596095358
0.39225967961207,2.29907239161052,0.187814352089954,1241.98371978695
0.40305658857783,2.31196418998631,0.183544221790339,1235.97095692269
0.413826712590669,2.32482483138787,0.179284464043431,1229.98752852226
0.424570117104554,2.33765439190248,0.17503505351551,1224.03329144897
0.435286867413566,2.35045294743156,0.170795964934738,1218.10810326453
0.445977028652287,2.3632205736911,0.166567173091013,1212.21182222573
0.456640665796193,2.37595734621217,0.16234865283581,1206.34430728096
0.467277843662039,2.38866334034133,0.158140379082036,1200.50541806687
0.47788862690825,2.40133863124106,0.153942326803882,1194.69501490503
0.488473080035306,2.41398329389029,0.149754471036665,1188.91295879856
0.499031267386127,2.42659740308475,0.145576786876687,1183.1591114288
0.509563253146461,2.43918103343751,0.141409249481082,1177.43333515205
0.520069101345266,2.45173425937935,0.137251834067668,1171.7354929962
0.530548875855089,2.46425715515924,0.133104515914799,1166.06544865752
0.541002640392458,2.4767497948448,0.128967270361218,1160.42306649738
0.551430458518253,2.4892122523227,0.124840072805906,1154.80821153896
0.561832393638092,2.50164460129915,0.12072289870794,1149.22074946411
0.572208509002708,2.5140469153003,0.116615723586343,1143.66054661004
0.582558867708328,2.5264192676727,0.112518523019938,1138.12746996619
0.592883532697051,2.53876173158373,0.108431272647201,1132.62138717102
0.603182566757224,2.55107438002207,0.104353948166118,1127.14216650883
0.613456032523816,2.56335728579808,0.100286525334038,1121.68967690666
0.623703992478795,2.57561052154428,0.0962289799675262,1116.26378793109
0.633926508951501,2.58783415971575,0.0921812879422234,1110.86436978516
0.644123644119019,2.60002827259062,0.0881434251926982,1105.49129330525
0.65429546000655,2.61219293227043,0.0841153677123045,1100.144429958
0.664442018487784,2.62432821068061,0.0800970915530378,1094.82365183722
0.674563381285265,2.6364341795709,0.076088572825392,1089.52883166084
0.684659609970768,2.64851091051578,0.0720897876982161,1084.25984276785
0.694730765965662,2.66055847491487,0.0681007123985721,1079.01655911531
0.704776910541278,2.67257694399342,0.0641213232115928,1073.79885527528
0.714798104819276,2.68456638880267,0.0601515964803394,1068.60660643185
0.724794409772012,2.6965268802203,0.0561915086056607,1063.43968837815
0.734765886222899,2.70845848895087,0.0522410360460516,1058.29797751338
0.744712594846776,2.72036128552623,0.048300155317512,1053.18135083985
0.754634596170267,2.73223534030593,0.044368842993407,1048.08968596003
0.764531950572144,2.74408072347765,0.0404470757043262,1043.02286107363
0.774404718283689,2.75589750505764,0.0365348301379442,1037.98075497468
0.784252959389052,2.7676857548911,0.0326320830388811,1032.96324704865
0.794076733825615,2.77944554265263,0.0287388112085633,1027.97021726951
0.803876101384345,2.79117693784664,0.0248549915050849,1023.00154619695
0.813651121710156,2.80288000980775,0.0209806008430693,1018.05711497341
0.823401854302262,2.81455482770121,0.0171156161935307,1013.13680532135
0.833128358514538,2.82620146052334,0.0132600145837368,1008.24049954032
0.842830693555869,2.83781997710191,0.00941377309707151,1003.36808050422
0.852508918490508,2.84941044609655,0.00557686887289723,998.519431658433
0.862163092238429,2.86097293599921,0.00174927910641864,993.694437017102
0.871793273575678,2.87250751513449,-0.00206901895145386,988.892981160306
0.881399521134728,2.88401425166013,-0.00587804799424014,984.114949231314
0.890981893404822,2.89549321356736,-0.00967783066002631,979.360226933842
0.900540448732333,2.90694446868134,-0.0134683895315998,974.628700529311
0.910075245321106,2.91836808466153,-0.0172497471365848,969.92025683413
0.919586341232807,2.92976412900215,-0.0210219259475767,965.234783216986
0.929073794387274,2.94113266903252,-0.0247849483822767,960.572167596147
0.93853766256286,2.95247377191751,-0.0285388368036259,955.932298436787
0.947978003396777,2.96378750465793,-0.0322836135199389,951.315064748312
0.957394874385447,2.97507393409092,-0.0360193007850373,946.720356081703
0.96678833288484,2.98633312689035,-0.0397459207983831,942.14806252688
0.976158436110821,2.99756514956724,-0.043463495705211,937.598074710066
0.985505241139488,3.00877006847013,-0.0471720475966611,933.070283791172
0.994828804907517,3.01994794978549,-0.0508715985099112,928.564581461194
1.0041291842125,3.03109885953812,-0.0545621704283084,924.080859939623
1.0134064357133,3.04222286359154,-0.0582437852815007,919.61901197186
1.02266061593035,3.05332002764839,-0.0619164649455679,915.178930826658
1.03189178124604,3.06439041725081,-0.065580231243153,910.760510293561
1.04109998790501,3.07543409778084,-0.0692351059435921,906.363644680368
1.05028529201454,3.08645113446082,-0.0728811107630452,901.9882288106
1.05944774954482,3.09744159235375,-0.0765182673646256,897.634158020989
1.06858741632934,3.10840553636372,-0.0801465973585297,893.301328158969
1.07770434806519,3.11934303123627,-0.0837661223021665,888.989635580183
1.08679860031342,3.13025414155879,-0.087376863700286,884.698977146011
1.09587022849934,3.14113893176089,-0.0909788430051084,880.429250221093
1.10491928791288,3.15199746611482,-0.0945720816164519,876.180352670878
1.11394583370891,3.1628298087358,-0.0981566008818613,871.952182859181
1.12294992090756,3.17363602358246,-0.101732422096735,867.744639645749
1.13193160439458,3.1844161744572,-0.105299566504453,863.557622383842
1.14089093892162,3.19517032500654,-0.108858055296503,859.391030917825
1.14982797910661,3.20589853872156,-0.112407909612608,855.244765580772
1.15874277943405,3.21660087893824,-0.115949150540855,851.11872719208
1.16763539425534,3.22727740883785,-0.119481799117815,847.012817055098
1.17650587778913,3.23792819144732,-0.123005876328675,842.926936954765
1.18535428412161,3.24855328963962,-0.12652140310736,838.860989155256
1.19418066720687,3.25915276613416,-0.130028400336659,834.814876397652
1.20298508086718,3.26972668349712,-0.133526888848353,830.788501897605
1.21176757879336,3.28027510414187,-0.137016889423332,826.781769343025
1.22052821454504,3.29079809032932,-0.140498422791729,822.794582891779
1.22926704155106,3.30129570416827,-0.143971509633037,818.826847169392
1.23798411310973,3.31176800761583,-0.147436170576233,814.87846726677
1.24667948238914,3.32221506247777,-0.150892426199906,810.949348737925
1.25535320242754,3.33263693040887,-0.154340297032376,807.039397597719
1.26400532613359,3.34303367291332,-0.157779803551819,803.148520319613
1.27263590628674,3.35340535134506,-0.161210966186387,799.27662383343
1.28124499553748,3.36375202690816,-0.164633805314333,795.423615523129
1.28983264640771,3.37407376065721,-0.168048341264132,791.589403224588
1.29839891129102,3.38437061349763,-0.171454594314602,787.773895223397
1.30694384245301,3.39464264618608,-0.174852584695023,783.977000252668
1.31546749203163,3.40488991933082,-0.178242332585265,780.198627490848
1.32396991203744,3.41511249339204,-0.181623858115901,776.438686559547
1.33245115435398,3.42531042868226,-0.184997181368332,772.697087521377
1.34091127073803,3.43548378536666,-0.188362322374905,768.973740877796
1.34935031281994,3.44563262346348,-0.191719301119034,765.268557566973
1.35776833210396,3.45575700284432,-0.19506813753532,761.581448961649
1.36616537996851,3.46585698323455,-0.198408851509669,757.912326867024
1.37454150766651,3.47593262421364,-0.201741462879409,754.261103518644
1.38289676632568,3.48598398521554,-0.205065991433415,750.6276915803
1.39123120694884,3.49601112552901,-0.20838245691222,747.012004141938
1.39954488041424,3.50601410429797,-0.211690879008138,743.413954717583
1.40783783747583,3.5159929805219,-0.214991277365381,739.833457243266
1.41611012876359,3.52594781305613,-0.218283671580173,736.270426074969
1.42436180478382,3.53587866061225,-0.221568081200873,732.724775986569
1.43259291591945,3.54578558175841,-0.224844525728086,729.196422167808
1.44080351243033,3.55566863491973,-0.228113024614786,725.685280222254
1.44899364445353,3.56552787837857,-0.231373597266426,722.19126616529
1.45716336200366,3.57536337027496,-0.234626263041057,718.714296422101
1.46531271497315,3.5851751686069,-0.237871041249446,715.254287825674
1.47344175313257,3.5949633312307,-0.241107951155187,711.811157614807
1.48155052613089,3.60472791586136,-0.244337011974819,708.384823432134
1.48963908349581,3.61446898007292,-0.247558242877941,704.975203322149
1.49770747463404,3.62418658129873,-0.250771662987327,701.582215729247
1.50575574883161,3.63388077683191,-0.253977291379036,698.205779495773
1.51378395525415,3.64355162382557,-0.257175147082534,694.845813860082
1.52179214294719,3.65319917929326,-0.260365249080799,691.502238454601
1.52978036083646,3.66282350010923,-0.263547616310443,688.174973303914
1.53774865772817,3.67242464300882,-0.266722267661819,684.863938822841
1.54569708230931,3.68200266458878,-0.269889221979136,681.56905581454
1.55362568314794,3.6915576213076,-0.273048498060572,678.290245468606
1.56153450869347,3.70108956948588,-0.276200114658388,675.027429359193
1.56942360727697,3.71059856530663,-0.279344090479037,671.78052944313
1.57729302711145,3.72008466481561,-0.282480444183277,668.549468058056
1.58514281629214,3.7295479239217,-0.285609194386284,665.334167920568
1.5929730227968,3.7389883983972,-0.288730359657763,662.134552124361
1.60078369448597,3.74840614387817,-0.291843958522057,658.950544138396
1.60857487910329,3.75780121586479,-0.29495000945826,655.782067805068
1.61634662427577,3.76717366972163,-0.298048530900327,652.62904733838
1.62409897751408,3.77652356067806,-0.301139541237183,649.491407322133
1.63183198621284,3.78585094382851,-0.304223058812836,646.369072708121
1.63954569765088,3.79515587413286,-0.307299101926482,643.261968814335
1.64724015899155,3.80443840641671,-0.310367688832619,640.170021323175
1.654915417283,3.81369859537176,-0.313428837741155,637.093156279676
1.66257151945843,3.8229364955561,-0.316482566817516,634.031300089732
1.67020851233641,3.83215216139456,-0.319528894182753,630.984379518341
1.67782644262114,3.84134564717901,-0.322567837913655,627.952321687851
1.68542535690273,3.85051700706873,-0.325599416042854,624.935054076213
1.69300530165748,3.85966629509068,-0.328623646558931,621.932504515253
1.70056632324816,3.86879356513985,-0.33164054740653,618.944601188937
1.7081084679243,3.87789887097959,-0.334650136486457,615.971272631659
1.71563178182242,3.88698226624192,-0.337652431655795,613.012447726528
1.72313631096639,3.89604380442785,-0.340647450728005,610.068055703667
1.73062210126761,3.9050835389077,-0.343635211473036,607.138026138522
1.73808919852534,3.91410152292143,-0.34661573161743,604.222288950171
1.74553764842698,3.92309780957894,-0.349589028844426,601.320774399655
1.75296749654831,3.93207245186041,-0.352555120794071,598.433413088305
1.76037878835378,3.9410255026166,-0.35551402506332,595.56013595608
1.76777156919679,3.94995701456916,-0.358465759206145,592.700874279919
1.77514588431995,3.95886704031098,-0.361410340733637,589.855559672095
1.78250177885535,3.96775563230646,-0.364347787114114,587.024124078575
1.78983929782483,3.97662284289185,-0.367278115773224,584.206499777399
1.79715848614025,3.98546872427557,-0.370201344094047,581.402619377053
1.80445938860378,3.9942933285385,-0.373117489417203,578.612415814861
1.81174204990812,4.00309670763429,-0.376026569040954,575.835822355378
1.81900651463682,4.01187891338971,-0.378928600221305,573.072772588794
1.82625282726452,4.0206399975049,-0.381823600172111,570.323200429345
1.83348103215721,4.02938001155376,-0.38471158606518,567.587040113732
1.84069117357249,4.03809900698415,-0.387592575030371,564.864226199548
1.84788329565989,4.0467970351183,-0.390466584155701,562.154693563711
1.85505744246107,4.05547414715306,-0.393333630487446,559.458377400906
1.86221365791008,4.06413039416023,-0.396193731030243,556.775213222036
1.86935198583371,4.07276582708685,-0.399046902747191,554.105136852678
1.87647246995163,4.0813804967555,-0.401893162559953,551.448084431547
1.88357515387675,4.08997445386465,-0.404732527348858,548.803992408969
1.89066008111544,4.09854774898888,-0.407565013952999,546.172797545358
1.89772729506778,4.10710043257928,-0.410390639170339,543.554436909709
1.90477683902784,4.11563255496366,-0.413209419757805,540.948847878085
1.91180875618395,4.12414416634693,-0.416021372431395,538.355968132123
1.91882308961891,4.13263531681135,-0.418826513866271,535.775735657542
1.9258198823103,4.14110605631683,-0.421624860696865,533.20808874266
1.93279917713071,4.14955643470127,-0.424416429516974,530.652965976914
1.939761016848,4.1579865016808,-0.427201236879864,528.110306249396
1.94670544412557,4.16639630685013,-0.429979299298362,525.580048747387
1.95363250152258,4.17478589968283,-0.432750633244962,523.062132954903
1.96054223149426,4.1831553295316,-0.435515255151918,520.556498651247
1.96743467639209,4.19150464562859,-0.438273181411348,518.063085909569
1.97430987846414,4.19983389708571,-0.441024428375325,515.581835095432
1.98116787985525,4.20814313289488,-0.44376901235598,513.112686865384
1.98800872260732,4.21643240192836,-0.446506949625599,510.655582165538
1.99483244865954,4.22470175293903,-0.449238256416719,508.210462230161
2.00163909984866,4.23295123456068,-0.451962948922225,505.777268580266
2.00842871790924,4.2411808953083,-0.454681043295447,503.355943022216
2.01520134447388,4.24939078357836,-0.457392555650258,500.946427646327
2.02195702107349,4.25758094764914,-0.460097502061169,498.548664825484
2.02869578913753,4.26575143568097,-0.462795898563425,496.162597213767
2.03541768999425,4.27390229571655,-0.465487761153103,493.78816774507
2.04212276487094,4.28203357568121,-0.468173105787204,491.425319631745
2.0488110548942,4.29014532338322,-0.470851948383753,489.073996363235
2.05548260109015,4.29823758651408,-0.473524304821889,486.734141704728
2.06213744438471,4.30631041264878,-0.476190190941966,484.405699695808
2.0687756256038,4.3143638492461,-0.478849622545641,482.08861464912
2.07539718547364,4.32239794364891,-0.481502615395975,479.782831149032
2.08200216462096,4.33041274308441,-0.484149185217522,477.488294050312
2.08859060357323,4.33840829466444,-0.486789347696428,475.204948476811
2.09516254275894,4.34638464538578,-0.489423118480521,472.932739820147
2.10171802250781,4.35434184213041,-0.492050513179403,470.671613738397
2.10825708305106,4.36227993166576,-0.494671547364552,468.421516154802
2.11477976452161,4.37019896064505,-0.497286236569404,466.182393256467
2.12128610695437,4.37809897560753,-0.499894596289453,463.95419149308
2.12777615028644,4.38598002297878,-0.502496641982344,461.736857575623
2.13424993435736,4.39384214907095,-0.50509238906796,459.530338475105
2.14070749890936,4.4016854000831,-0.50768185292852,457.334581421288
2.14714888358759,4.4095098221014,-0.510265048908668,455.149533901426
2.15357412794034,4.41731546109948,-0.512841992315565,452.975143659009
2.15998327141931,4.42510236293865,-0.515412698418981,450.81135869251
2.16637635337983,4.43287057336819,-0.517977182451387,448.658127254146
2.17275341308108,4.44062013802565,-0.520535459608044,446.515397848635
2.17911448968634,4.44835110243708,-0.523087545047097,444.383119231966
2.18545962226324,4.45606351201733,-0.525633453889663,442.261240410173
2.19178884978397,4.46375741207033,-0.528173201219923,440.149710638115
2.19810221112549,4.47143284778932,-0.530706802085211,438.04847941826
2.20439974506984,4.47908986425716,-0.533234271496105,435.95749649948
2.2106814903043,4.4867285064466,-0.535755624426516,433.876711875846
2.21694748542164,4.4943488192205,-0.538270875813779,431.806075785432
2.22319776892037,4.50195084733217,-0.54078004055874,429.745538709126
2.22943237920495,4.50953463542557,-0.543283133525848,427.695051369444
2.23565135458604,4.51710022803564,-0.545780169543241,425.654564729349
2.24185473328068,4.5246476695885,-0.548271163402837,423.624029991082
2.2480425534126,4.53217700440178,-0.550756129860421,421.603398594993
2.25421485301238,4.53968827668485,-0.553235083635734,419.592622218374
2.26037167001769,4.54718153053906,-0.555708039412562,417.591652774312
2.26651304227355,4.55465680995807,-0.558175011838821,415.600442410532
2.27263900753251,4.56211415882806,-0.560636015526646,413.618943508253
2.27874960345492,4.56955362092802,-0.563091065052481,411.647108681049
2.28484486760913,4.57697523992999,-0.565540174957163,409.684890773718
2.2909248374717,4.58437905939933,-0.567983359746008,407.732242861149
2.29698955042766,4.59176512279499,-0.570420633888902,405.789118247203
2.30303904377073,4.59913347346976,-0.572852011820385,403.855470463593
2.3090733547035,4.60648415467054,-0.575277507939736,401.931253268775
2.3150925203377,4.61381720953857,-0.577697136611061,400.016420646841
2.32109657769441,4.62113268110975,-0.580110912163381,398.110926806413
2.32708556370425,4.6284306123148,-0.582518848890713,396.214726179557
2.33305951520766,4.63571104597962,-0.584920961052157,394.327773420684
2.33901846895507,4.64297402482547,-0.587317262871985,392.450023405469
2.34496246160713,4.65021959146928,-0.58970776853972,390.581431229772
2.35089152973496,4.65744778842386,-0.592092492210227,388.721952208559
2.35680570982031,4.66465865809818,-0.594471448003793,386.87154187484
2.36270503825585,4.67185224279761,-0.596844650006213,385.030155978599
2.36858955134533,4.6790285847242,-0.599212112268875,383.197750485739
2.37445928530382,4.68618772597689,-0.601573848808844,381.374281577026
2.38031427625793,4.69332970855181,-0.603929873608945,379.559705647042
2.38615456024602,4.70045457434248,-0.606280200617845,377.75397930314
2.39198017321841,4.70756236514011,-0.608624843750142,375.957059364409
2.39779115103762,4.7146531226338,-0.610963816886442,374.168902860637
2.40358752947853,4.72172688841085,-0.613297133873446,372.389467031287
2.40936934422867,4.72878370395695,-0.615624808524029,370.618709324468
2.41513663088837,4.73582361065645,-0.617946854617329,368.856587395925
2.420889424971,4.74284664979264,-0.620263285898822,367.103059108018
2.42662776190318,4.74985286254793,-0.622574116080411,365.358082528719
2.43235167702501,4.75684229000415,-0.624879358840501,363.621615930605
2.43806120559022,4.76381497314279,-0.627179027824088,361.893617789865
2.44375638276646,4.77077095284523,-0.629473136642835,360.174046785299
2.44943724363546,4.77771026989297,-0.631761698875156,358.462861797337
2.45510382319325,4.78463296496792,-0.634044728066299,356.760021907049
2.46075615635038,4.7915390786526,-0.63632223772842,355.06548639517
2.46639427793212,4.7984286514304,-0.638594241340675,353.379214741122
2.47201822267867,4.80530172368582,-0.640860752349288,351.701166622051
2.47762802524535,4.81215833570473,-0.643121784167643,350.031301911854
2.48322372020285,4.81899852767457,-0.645377350176355,348.369580680225
2.48880534203741,4.82582233968463,-0.647627463723357,346.715963191697
2.494372925151,4.83262981172626,-0.649872138123975,345.070409904691
2.49992650386159,4.83942098369315,-0.65211138666101,343.432881470572
2.5054661124033,4.84619589538151,-0.654345222584816,341.803338732706
2.51099178492662,4.85295458649036,-0.656573659113382,340.181742725523
2.51650355549862,4.85969709662174,-0.658796709432409,338.568054673586
2.52200145810317,4.86642346528096,-0.661014386695387,336.962235990661
2.5274855266411,4.87313373187682,-0.663226704023678,335.364248278796
2.53295579493044,4.87982793572186,-0.665433674506591,333.774053327403
2.53841229670661,4.88650611603259,-0.667635311201463,332.191613112338
2.54385506562262,4.89316831192975,-0.669831627133734,330.616889795
2.54928413524928,4.89981456243848,-0.672022635297029,329.049845721418
2.55469953907537,4.90644490648862,-0.674208348653229,327.490443421355
2.56010131050791,4.9130593829149,-0.676388780132558,325.938645607409
2.56548948287226,4.91965803045721,-0.678563942633651,324.394415174121
2.57086408941242,4.9262408877608,-0.680733849023638,322.857715197088
2.57622516329114,4.9328079933765,-0.682898512138218,321.32850893208
2.58157273759021,4.93935938576102,-0.685057944781734,319.80675981416
2.58690684531056,4.94589510327707,-0.687212159727254,318.292431456807
2.59222751937254,4.95241518419371,-0.689361169716643,316.785487651052
2.59753479261607,4.95891966668648,-0.691504987460645,315.285892364604
2.60282869780084,4.9654085888377,-0.69364362563895,313.793609740991
2.60810926760654,4.97188198863663,-0.69577709690028,312.308604098705
2.61337653463301,4.97833990397976,-0.697905413862457,310.830839930343
2.61863053140045,4.98478237267102,-0.700028589112482,309.36028190176
2.62387129034965,4.99120943242196,-0.70214663520661,307.896894851227
2.62909884384213,4.99762112085204,-0.704259564670424,306.440643788582
2.63431322416037,5.00401747548883,-0.706367389998911,304.9914938944
2.63951446350797,5.0103985337682,-0.708470123656536,303.549410519156
2.6447025940099,5.01676433303462,-0.710567778077318,302.114359182397
2.64987764771262,5.02311491054131,-0.712660365664902,300.686305571916
2.65503965658434,5.02945030345048,-0.714747898792635,299.265215542935
2.66018865251514,5.03577054883361,-0.716830389803639,297.851055117283
2.66532466731724,5.04207568367157,-0.718907851010887,296.443790482585
2.67044773272512,5.04836574485494,-0.720980294697272,295.043387991454
2.67555788039576,5.05464076918418,-0.723047733115687,293.649814160685
2.68065514190879,5.06090079336983,-0.725110178489091,292.263035670453
2.68573954876671,5.06714585403278,-0.727167643010588,290.883019363517
2.69081113239507,5.07337598770448,-0.729220138843499,289.509732244429
2.69586992414265,5.07959123082712,-0.731267678121431,288.143141478738
2.70091595528164,5.08579161975387,-0.733310272948352,286.783214392211
2.70594925700786,5.09197719074912,-0.735347935398666,285.429918470047
2.71096986044091,5.09814797998867,-0.737380677517281,284.083221356103
2.71597779662437,5.10430402355995,-0.739408511319683,282.743090852116
2.72097309652601,5.11044535746224,-0.741431448792008,281.409494916932
2.72595579103792,5.11657201760689,-0.743449501891112,280.082401665746
2.73092591097675,5.12268403981753,-0.745462682544645,278.76177936933
2.73588348708386,5.12878145983026,-0.747471002651122,277.447596453282
2.74082855002554,5.13486431329393,-0.749474474079992,276.139821497266
2.74576113039313,5.14093263577028,-0.751473108671711,274.83842323426
2.75068125870327,5.14698646273419,-0.753466918237812,273.54337054981
2.75558896539804,5.15302582957388,-0.755455914560975,272.254632481284
2.76048428084518,5.15905077159115,-0.7574401093951,270.972178217134
2.76536723533822,5.16506132400154,-0.759419514465375,269.695977096154
2.77023785909669,5.17105752193459,-0.761394141468345,268.425998606751
2.77509618226633,5.17703940043403,-0.763364002071987,267.162212386211
2.77994223491922,5.18300699445796,-0.765329107915774,265.904588219976
2.78477604705398,5.18896033887912,-0.767289470610748,264.653096040921
2.78959764859594,5.19489946848505,-0.769245101739588,263.407705928629
2.79440706939736,5.20082441797833,-0.771196012856682,262.168388108684
2.79920433923754,5.20673522197676,-0.77314221548819,260.935112951951
2.80398948782308,5.21263191501358,-0.775083721132121,259.707850973871
2.80876254478796,5.21851453153767,-0.777020541258395,258.486572833755
2.81352353969382,5.22438310591378,-0.778952687308916,257.271249334081
2.81827250203005,5.2302376724227,-0.780880170697637,256.061851419796
2.82300946121403,5.2360782652615,-0.782803002810632,254.858350177622
2.82773444659126,5.24190491854369,-0.784721195006161,253.660716835361
2.83244748743558,5.24771766629948,-0.786634758614738,252.46892276121
2.83714861294929,5.25351654247594,-0.788543704939203,251.282939463075
2.84183785226337,5.25930158093722,-0.790448045254783,250.102738587887
2.84651523443765,5.26507281546474,-0.792347790809165,248.928291920928
2.85118078846096,5.27083027975744,-0.79424295282256,247.759571385151
2.85583454325131,5.27657400743189,-0.796133542487772,246.596549040513
2.86047652765609,5.28230403202258,-0.798019570970265,245.439197083302
2.8651067704522,5.28802038698209,-0.799901049408227,244.287487845475
2.86972530034627,5.29372310568125,-0.801777988912639,243.141393793995
2.87433214597477,5.29941222140942,-0.803650400567344,242.000887530173
2.87892733590426,5.30508776737461,-0.805518295429106,240.865941789009
2.88351089863148,5.31074977670373,-0.807381684527684,239.736529438545
2.88808286258358,5.31639828244277,-0.809240578865893,238.612623479212
2.89264325611826,5.32203331755699,-0.811094989419671,237.494197043184
2.89719210752396,5.32765491493113,-0.812944927138146,236.381223393739
2.90172944502001,5.33326310736962,-0.8147904029437,235.273675924614
2.9062552967568,5.33885792759672,-0.816631427732034,234.171528159372
2.91076969081596,5.3444394082568,-0.818468012372236,233.074753750768
2.91527265521052,5.35000758191446,-0.820300167706842,231.983326480117
2.91976421788509,5.35556248105476,-0.822127904551903,230.89722025667
2.924244406716,5.36110413808342,-0.823951233697051,229.816409116983
2.9287132495115,5.36663258532698,-0.82577016590556,228.740867224305
2.93317077401191,5.37214785503305,-0.827584711914415,227.670568867954
2.93761700788978,5.37764997937044,-0.829394882434371,226.605488462701
2.94205197875005,5.38313899042939,-0.831200688150022,225.545600548163
2.94647571413026,5.38861492022176,-0.833002139719862,224.490879788187
2.95088824150064,5.3940778006812,-0.834799247776347,223.441300970251
2.95528958826435,5.39952766366339,-0.836592022925965,222.396839004855
2.9596797817576,5.40496454094615,-0.838380475749293,221.357468924923
2.96405884924982,5.41038846422971,-0.840164616801063,220.323165885208
2.96842681794382,5.41579946513685,-0.841944456610225,219.293905161692
2.97278371497597,5.42119757521311,-0.84372000568001,218.269662150999
2.97712956741636,5.42658282592699,-0.845491274487993,217.250412369805
2.98146440226892,5.43195524867009,-0.847258273486155,216.236131454253
2.98578824647166,5.43731487475735,-0.849021013100945,215.226795159367
2.99010112689675,5.44266173542722,-0.850779503733344,214.222379358475
2.99440307035074,5.44799586184183,-0.852533755758927,213.222860042632
2.99869410357467,5.45331728508721,-0.854283779527924,212.228213320043
3.0029742532443,5.45862603617345,-0.856029585365283,211.238415415493
3.00724354597018,5.46392214603487,-0.857771183570729,210.253442669779
3.01150200829789,5.46920564553025,-0.85950858441883,209.273271539141
3.01574966670815,5.474476565443,-0.861241798159055,208.297878594702
3.019986547617,5.47973493648131,-0.862970835015838,207.327240521906
3.02421267737594,5.48498078927838,-0.864695705188637,206.361334119959
3.02842808227211,5.49021415439256,-0.866416418851994,205.400136301275
3.03263278852843,5.49543506230758,-0.8681329861556,204.443624090925
3.03682682230377,5.5006435434327,-0.869845417224353,203.491774626086
3.04101020969309,5.50583962810289,-0.871553722158416,202.544565155491
3.04518297672761,5.51102334657904,-0.873257911033284,201.601973038891
3.04934514937496,5.5161947290481,-0.874957993899839,200.663975746508
3.05349675353934,5.52135380562329,-0.876653980784411,199.730550858499
3.05763781506167,5.52650060634429,-0.878345881688839,198.801676064417
3.06176835971975,5.53163516117738,-0.88003370659053,197.877329162679
3.06588841322839,5.53675750001564,-0.881717465442521,196.957488060036
3.06999800123961,5.54186765267916,-0.883397168173535,196.04213077104
3.07409714934276,5.54696564891516,-0.885072824688042,195.131235417522
3.07818588306468,5.55205151839821,-0.886744444866319,194.224780228069
3.08226422786983,5.55712529073038,-0.888412038564507,193.322743537498
3.08633220916052,5.56218699544146,-0.890075615614673,192.425103786344
3.09038985227694,5.56723666198907,-0.891735185824867,191.531839520339
3.09443718249744,5.57227431975891,-0.89339075897918,190.642929389903
3.09847422503858,5.57729999806488,-0.895042344837803,189.75835214963
3.10250100505533,5.58231372614928,-0.896689953137086,188.878086657779
3.10651754764123,5.58731553318298,-0.898333593589598,188.002111875774
3.11052387782851,5.59230544826559,-0.89997327588418,187.130406867691
3.11452002058823,5.59728350042564,-0.901609009686007,186.262950799769
3.11850600083049,5.60224971862077,-0.903240804636646,185.399722939899
3.12248184340451,5.60720413173787,-0.904868670354112,184.540702657138
3.12644757309883,5.61214676859325,-0.906492616432924,183.68586942121
3.13040321464141,5.61707765793287,-0.908112652444168,182.835202802017
3.13434879269982,5.62199682843245,-0.909728787935547,181.988682469148
3.13828433188139,5.62690430869767,-0.911341032431444,181.146288191397
3.14220985673332,5.63180012726432,-0.912949395432976,180.307999836272
3.14612539174283,5.6366843125985,-0.914553886418052,179.47379736952
3.15003096133735,5.64155689309679,-0.916154514841429,178.643660854644
3.15392658988464,5.64641789708638,-0.917751290134769,177.817570452427
3.15781230169292,5.65126735282528,-0.919344221706694,176.995506420457
3.16168812101102,5.65610528850248,-0.920933318942845,176.177449112656
3.16555407202857,5.66093173223808,-0.922518591205936,175.363378978807
3.16941017887607,5.66574671208354,-0.924100047835811,174.55327656409
3.17325646562511,5.67055025602177,-0.9256776981495,173.747122508613
3.17709295628846,5.67534239196732,-0.927251551441272,172.944897546951
3.18091967482022,5.68012314776658,-0.928821616982696,172.146582507684
3.184736645116,5.6848925511979,-0.93038790402269,171.352158312941
3.18854389101303,5.68965062997178,-0.931950421787581,170.561605977937
3.19234143629029,5.69439741173103,-0.933509179481161,169.774906610526
3.19612930466871,5.69913292405095,-0.935064186284737,168.992041410747
3.19990751981124,5.70385719443946,-0.936615451357189,168.21299167037
3.20367610532304,5.70857025033732,-0.938162983835026,167.437738772454
3.20743508475162,5.71327211911822,-0.939706792832438,166.666264190898
3.21118448158695,5.71796282808902,-0.941246887441351,165.898549489999
3.21492431926162,5.72264240448986,-0.942783276731486,165.134576324012
3.21865462115099,5.72731087549434,-0.944315969750404,164.374326436708
3.22237541057332,5.7319682682097,-0.945844975523569,163.617781660941
3.22608671078988,5.73661460967694,-0.947370303054398,162.86492391821
3.22978854500516,5.74124992687102,-0.948891961324314,162.115735218227
3.23348093636693,5.74587424670102,-0.950409959292802,161.370197658491
3.23716390796644,5.75048759601028,-0.951924305897461,160.628293423851
3.24083748283852,5.75509000157657,-0.95343501005406,159.89000478609
3.24450168396173,5.75968149011224,-0.954942080656586,159.155314103491
3.2481565342585,5.76426208826441,-0.956445526577304,158.424203820422
3.25180205659526,5.76883182261509,-0.957945356666804,157.696656466915
3.2554382737826,5.77339071968138,-0.959441579754059,156.972654658242
3.25906520857538,5.77793880591559,-0.960934204646474,156.252181094508
3.26268288367285,5.78247610770542,-0.96242324012994,155.535218560231
3.26629132171885,5.78700265137412,-0.963908694968888,154.821749923931
3.26989054530188,5.79151846318063,-0.965390577906337,154.111758137721
3.27348057695526,5.79602356931976,-0.966868897663954,153.4052262369
3.27706143915729,5.80051799592231,-0.968343662942097,152.702137339546
3.28063315433133,5.80500176905529,-0.969814882419875,152.002474646111
3.28419574484598,5.80947491472199,-0.971282564755195,151.306221439021
3.2877492330152,5.81393745886223,-0.972746718584815,150.613361082274
3.29129364109844,5.81838942735244,-0.974207352524396,149.923877021046
3.29482899130076,5.82283084600584,-0.975664475168555,149.23775278129
3.29835530577299,5.8272617405726,-0.977118095090913,148.554971969342
3.30187260661186,5.83168213673999,-0.978568220844149,147.875518271536
3.30538091586011,5.83609206013256,-0.980014860960051,147.199375453803
3.30888025550662,5.84049153631222,-0.981458023949565,146.526527361291
3.31237064748659,5.84488059077848,-0.982897718302848,145.856957917975
3.3158521136816,5.84925924896854,-0.984333952489319,145.190651126271
3.31932467591981,5.85362753625748,-0.985766734957706,144.527591066657
3.32278835597604,5.85798547795839,-0.987196074136102,143.86776189729
3.32624317557192,5.86233309932252,-0.988621978432011,143.211147853626
3.32968915637601,5.86667042553946,-0.990044456232402,142.557733248045
3.33312632000396,5.87099748173725,-0.991463515903755,141.907502469473
3.33655468801861,5.87531429298256,-0.992879165792113,141.260439983012
3.33997428193011,5.87962088428082,-0.994291414223134,140.616530329564
3.34338512319608,5.8839172805764,-0.995700269502138,139.975758125467
3.34678723322172,5.88820350675271,-0.997105739914157,139.33810806212
3.35018063335995,5.89247958763242,-0.998507833723986,138.703564905622
3.35356534491151,5.89674554797752,-0.999906559176231,138.072113496404
3.35694138912512,5.90100141248954,-1.00130192449536,137.44373874887
3.36030878719758,5.90524720580967,-1.00269393788575,136.818425651032
3.36366756027394,5.9094829525189,-1.00408260753173,136.196159264154
3.36701772944757,5.91370867713819,-1.00546794159765,135.576924722394
3.37035931576032,5.9179244041286,-1.00684994822792,134.960707232446
3.37369234020264,5.92213015789142,-1.00822863554703,134.347492073189
3.3770168237137,5.92632596276837,-1.00960401165966,133.737264595332
3.38033278718152,5.93051184304168,-1.01097608465066,133.130010221068
3.38364025144311,5.93468782293429,-1.01234486258514,132.525714443719
3.38693923728457,5.93885392660994,-1.01371035350854,131.924362827394
3.39022976544121,5.94301017817339,-1.01507256544659,131.325941006641
3.3935118565977,5.94715660167047,-1.01643150640547,130.730434686105
3.39678553138819,5.95129322108832,-1.01778718437177,130.137829640183
3.4000508103964,5.95542006035546,-1.01913960731258,129.548111712688
3.4033077141558,5.95953714334197,-1.02048878317554,128.961266816506
3.40655626314968,5.96364449385961,-1.02183471988886,128.377280933263
3.40979647781128,5.96774213566199,-1.02317742536139,127.796140112986
3.41302837852397,5.97183009244469,-1.02451690748266,127.21783047377
3.41625198562128,5.97590838784543,-1.02585317412294,126.642338201449
3.4194673193871,5.97997704544415,-1.02718623313325,126.06964954926
3.42267440005575,5.98403608876323,-1.02851609234546,125.49975083752
3.42587324781215,5.98808554126756,-1.0298427595723,124.932628453294
3.42906388279187,5.99212542636476,-1.03116624260739,124.368268850073
3.43224632508133,5.99615576740521,-1.03248654922536,123.806658547444
3.43542059471787,6.00017658768231,-1.0338036871818,123.247784130777
3.43858671168987,6.00418791043253,-1.0351176642134,122.691632250895
3.44174469593691,6.00818975883558,-1.03642848803792,122.138189623759
3.44489456734983,6.01218215601457,-1.03773616635428,121.587443030148
3.44803634577091,6.01616512503611,-1.03904070684259,121.039379315347
3.45117005099393,6.02013868891046,-1.0403421171642,120.493985388826
3.45429570276434,6.02410287059171,-1.04164040496176,119.951248223933
3.45741332077936,6.02805769297783,-1.04293557785923,119.411154857576
3.46052292468806,6.0320031789109,-1.04422764346196,118.87369238992
3.46362453409154,6.03593935117719,-1.04551660935671,118.338847984073
3.46671816854302,6.03986623250728,-1.04680248311172,117.806608865778
3.46980384754794,6.04378384557629,-1.04808527227674,117.276962323114
3.47288159056409,6.04769221300389,-1.04936498438308,116.749895706185
3.47595141700175,6.05159135735454,-1.05064162694365,116.225396426821
3.47901334622377,6.05548130113755,-1.05191520745301,115.703451958275
3.4820673975457,6.05936206680728,-1.05318573338741,115.184049834925
3.48511359023589,6.06323367676322,-1.05445321220483,114.667177651973
3.48815194351566,6.06709615335015,-1.05571765134506,114.152823065154
3.49118247655935,6.07094951885826,-1.05697905822968,113.640973790432
3.49420520849445,6.07479379552331,-1.05823744026218,113.131617603715
3.49722015840176,6.07862900552674,-1.05949280482793,112.624742340554
3.50022734531544,6.0824551709958,-1.06074515929428,112.120335895859
3.50322678822316,6.0862723140037,-1.06199451101059,111.618386223608
3.50621850606621,6.09008045656971,-1.06324086730824,111.118881336553
3.50920251773961,6.09387962065935,-1.06448423550072,110.621809305942
3.51217884209222,6.09766982818447,-1.06572462288367,110.127158261226
3.51514749792686,6.10145110100338,-1.06696203673488,109.63491638978
3.51810850400042,6.10522346092101,-1.06819648431437,109.145071936619
3.52106187902396,6.10898692968904,-1.06942797286445,108.657613204114
3.52400764166285,6.112741529006,-1.07065650960971,108.172528551716
3.52694581053683,6.11648728051742,-1.07188210175709,107.689806395676
3.52987640422021,6.12022420581597,-1.07310475649596,107.209435208767
3.53279944124187,6.12395232644157,-1.0743244809981,106.73140352001
3.53571494008546,6.12767166388151,-1.07554128241778,106.255699914398
3.53862291918947,6.13138223957061,-1.07675516789179,105.782313032622
3.54152339694734,6.13508407489133,-1.07796614453948,105.311231570803
3.54441639170761,6.13877719117389,-1.07917421946284,104.842444280217
3.54730192177395,6.14246160969643,-1.08037939974648,104.375939967029
3.55018000540536,6.14613735168509,-1.08158169245771,103.911707492025
3.55305066081621,6.14980443831417,-1.0827811046466,103.449735770343
3.55591390617638,6.15346289070624,-1.08397764334597,102.99001377121
3.55876975961138,6.1571127299323,-1.08517131557147,102.532530517678
3.56161823920243,6.16075397701186,-1.08636212832162,102.07727508636
3.56445936298657,6.16438665291309,-1.08755008857784,101.624236607171
3.5672931489568,6.16801077855293,-1.08873520330449,101.173404263065
3.57011961506216,6.17162637479725,-1.08991747944893,100.724767289777
3.57293877920784,6.17523346246094,-1.09109692394155,100.278314975569
3.57575065925529,6.17883206230805,-1.0922735436958,99.8340366609676
3.57855527302234,6.18242219505189,-1.09344734560824,99.3919217385141
3.58135263828327,6.18600388135521,-1.0946183365586,98.951959652508
3.58414277276896,6.18957714183026,-1.0957865234098,98.5141398987551
3.58692569416698,6.19314199703895,-1.09695191300799,98.0784520243165
3.58970142012167,6.19669846749296,-1.0981145121826,97.6448856272586
3.5924699682343,6.20024657365387,-1.09927432774637,97.2134303564032
3.59523135606311,6.20378633593329,-1.10043136649542,96.7840759110809
3.59798560112348,6.20731777469296,-1.10158563520924,96.3568120408843
3.60073272088797,6.21084091024487,-1.10273714065078,95.9316285454227
3.60347273278649,6.21435576285143,-1.10388588956647,95.5085152740777
3.60620565420635,6.21786235272551,-1.10503188868625,95.0874621257614
3.6089315024924,6.22136070003064,-1.10617514472363,94.6684590486732
3.6116502949471,6.2248508248811,-1.10731566437571,94.2514960400608
3.61436204883066,6.22833274734201,-1.10845345432325,93.8365631459798
3.61706678136114,6.2318064874295,-1.10958852123067,93.4236504610561
3.6197645097145,6.2352720651108,-1.11072087174612,93.0127481282485
3.62245525102477,6.23872950030437,-1.11185051250151,92.6038463386134
3.62513902238412,6.24217881288,-1.11297745011256,92.1969353310696
3.62781584084296,6.24562002265897,-1.11410169117881,91.792005392165
3.63048572341007,6.24905314941413,-1.11522324228369,91.3890468558441
3.63314868705266,6.25247821287003,-1.11634210999456,90.9880501032168
3.63580474869648,6.25589523270304,-1.11745830086272,90.5890055623283
3.63845392522598,6.25930422854147,-1.11857182142347,90.1919037079299
3.64109623348431,6.26270521996569,-1.11968267819615,89.7967350612514
3.64373169027351,6.26609822650822,-1.12079087768418,89.4034901897737
3.64636031235456,6.2694832676539,-1.12189642637509,89.0121597070041
3.64898211644752,6.27286036283996,-1.12299933074055,88.6227342722507
3.65159711923156,6.27622953145613,-1.12409959723645,88.2352045903997
3.65420533734516,6.27959079284482,-1.12519723230289,87.8495614116922
3.65680678738611,6.28294416630115,-1.12629224236424,87.465795531504
3.65940148591169,6.28628967107315,-1.12738463382917,87.0838977901242
3.6619894494387,6.2896273263618,-1.12847441309073,86.7038590725368
3.66457069444362,6.2929571513212,-1.12956158652631,86.3256703082022
3.66714523736266,6.29627916505865,-1.13064616049774,85.9493224708407
3.6697130945919,6.29959338663477,-1.13172814135133,85.574806578216
3.67227428248735,6.30289983506365,-1.13280753541785,85.2021136919202
3.67482881736507,6.30619852931291,-1.13388434901264,84.8312349171607
3.67737671550127,6.30948948830384,-1.13495858843558,84.4621614025467
3.6799179931324,6.31277273091153,-1.1360302599712,84.0948843398775
3.68245266645522,6.31604827596495,-1.13709936988865,83.7293949639322
3.68498075162697,6.31931614224707,-1.13816592444177,83.3656845522592
3.68750226476538,6.322576348495,-1.13922992986914,83.0037444249685
3.69001722194884,6.32582891340006,-1.14029139239409,82.643565944523
3.69252563921643,6.32907385560793,-1.14135031822473,82.2851405155327
3.69502753256807,6.33231119371875,-1.14240671355404,81.9284595845484
3.6975229179646,6.33554094628719,-1.14346058455986,81.5735146398575
3.70001181132786,6.33876313182264,-1.14451193740492,81.2202972112801
3.70249422854078,6.34197776878926,-1.14556077823693,80.8687988699663
3.70497018544754,6.3451848756061,-1.14660711318855,80.519011228195
3.70743969785355,6.34838447064723,-1.14765094837748,80.1709259391723
3.70990278152567,6.35157657224184,-1.14869228990647,79.8245346968329
3.71235945219221,6.35476119867433,-1.14973114386337,79.4798292356404
3.71480972554306,6.35793836818447,-1.15076751632115,79.1368013303901
3.71725361722979,6.36110809896744,-1.15180141333794,78.7954427960122
3.71969114286574,6.36427040917401,-1.15283284095709,78.4557454873757
3.72212231802611,6.36742531691057,-1.15386180520719,78.1177012990935
3.72454715824803,6.37057284023934,-1.15488831210207,77.7813021653288
3.72696567903071,6.37371299717836,-1.1559123676409,77.4465400596018
3.72937789583546,6.3768458057017,-1.15693397780819,77.1134069945979
3.73178382408586,6.37997128373951,-1.15795314857384,76.7818950219764
3.73418347916778,6.38308944917815,-1.15896988589314,76.4519962321803
3.73657687642953,6.38620031986028,-1.15998419570686,76.1237027542472
3.7389640311819,6.38930391358497,-1.16099608394125,75.7970067556212
3.74134495869831,6.39240024810785,-1.16200555650809,75.4719004419649
3.74371967421484,6.39548934114113,-1.1630126193047,75.1483760569732
3.74608819293038,6.39857121035378,-1.16401727821401,74.8264258821882
3.74845053000666,6.40164587337162,-1.16501953910457,74.5060422368135
3.75080670056839,6.4047133477774,-1.16601940783062,74.1872174775317
3.75315671970334,6.40777365111092,-1.16701689023207,73.8699439983201
3.75550060246241,6.41082680086916,-1.16801199213458,73.55421423027
3.75783836385973,6.41387281450632,-1.16900471934958,73.2400206414048
3.76017001887278,6.416911709434,-1.16999507767429,72.9273557365001
3.76249558244241,6.41994350302126,-1.17098307289179,72.6162120569046
3.76481506947301,6.42296821259472,-1.17196871077102,72.3065821803609
3.76712849483253,6.42598585543871,-1.17295199706683,71.9984587208287
3.76943587335264,6.4289964487953,-1.17393293752001,71.6918343283075
3.77173721982874,6.43200000986447,-1.17491153785735,71.3867016886614
3.7740325490201,6.43499655580418,-1.17588780379162,71.0830535234432
3.77632187564994,6.43798610373047,-1.17686174102164,70.7808825897213
3.77860521440552,6.44096867071758,-1.17783335523234,70.4801816799053
3.7808825799382,6.44394427379805,-1.17880265209472,70.1809436215745
3.78315398686357,6.44691292996281,-1.17976963726596,69.8831612773059
3.78541944976151,6.44987465616127,-1.18073431638941,69.5868275445034
3.78767898317628,6.45282946930146,-1.18169669509464,69.2919353552277
3.7899326016166,6.45577738625011,-1.18265677899745,68.9984776760273
3.79218031955578,6.45871842383273,-1.18361457369994,68.7064475077709
3.79442215143175,6.46165259883376,-1.18457008479053,68.4158378854787
3.79665811164717,6.46457992799661,-1.18552331784398,68.1266418781568
3.79888821456952,6.46750042802382,-1.18647427842143,67.8388525886306
3.8011124745312,6.47041411557711,-1.18742297207044,67.5524631533806
3.80333090582956,6.47332100727752,-1.18836940432501,67.2674667423774
3.80554352272706,6.47622111970546,-1.18931358070565,66.9838565589187
3.8077503394513,6.47911446940088,-1.19025550671935,66.7016258394666
3.80995137019514,6.4820010728633,-1.19119518785968,66.4207678534856
3.81214662911675,6.48488094655195,-1.19213262960676,66.1412759032821
3.81433613033973,6.48775410688585,-1.19306783742734,65.8631433238432
3.81651988795317,6.49062057024392,-1.19400081677482,65.5863634826786
3.81869791601174,6.49348035296506,-1.19493157308928,65.3109297796602
3.82087022853578,6.49633347134827,-1.19586011179749,65.036835646866
3.82303683951138,6.49917994165274,-1.19678643831299,64.7640745484213
3.82519776289047,6.50201978009793,-1.19771055803609,64.4926399803437
3.8273530125909,6.5048530028637,-1.1986324763539,64.2225254703864
3.8295026024965,6.50767962609037,-1.19955219864038,63.953724577884
3.83164654645721,6.51049966587886,-1.20046973025635,63.6862308935982
3.83378485828912,6.51331313829072,-1.20138507654955,63.4200380395646
3.83591755177458,6.51612005934832,-1.20229824285465,63.1551396689396
3.83804464066226,6.51892044503484,-1.2032092344933,62.8915294658494
3.84016613866724,6.52171431129446,-1.20411805677412,62.6292011452379
3.84228205947113,6.52450167403239,-1.20502471499281,62.368148452717
3.84439241672208,6.527282549115,-1.20592921443208,62.1083651644169
3.84649722403492,6.5300569523699,-1.20683156036179,61.8498450868371
3.84859649499122,6.53282489958604,-1.20773175803889,61.5925820566978
3.85069024313936,6.5355864065138,-1.2086298127075,61.3365699407931
3.85277848199463,6.53834148886509,-1.20952572959893,61.0818026358439
3.85486122503931,6.54109016231344,-1.21041951393172,60.8282740683519
3.85693848572274,6.5438324424941,-1.21131117091165,60.5759781944545
3.85901027746141,6.54656834500412,-1.21220070573178,60.3249089997798
3.86107661363903,6.54929788540246,-1.21308812357251,60.0750604993029
3.86313750760661,6.55202107921008,-1.21397342960156,59.8264267372028
3.86519297268256,6.55473794191,-1.21485662897404,59.57900178672
3.86724302215275,6.55744848894745,-1.21573772683246,59.3327797500142
3.86928766927059,6.56015273572993,-1.21661672830678,59.0877547580235
3.87132692725712,6.56285069762728,-1.21749363851442,58.8439209703242
3.87336080930107,6.56554238997183,-1.2183684625603,58.6012725749908
3.87538932855897,6.56822782805843,-1.21924120553687,58.3598037884568
3.87741249815521,6.57090702714459,-1.22011187252414,58.1195088553766
3.87943033118209,6.57358000245054,-1.22098046858972,57.8803820484878
3.88144284069997,6.57624676915935,-1.22184699878884,57.6424176684739
3.88345003973727,6.57890734241696,-1.22271146816436,57.4056100438281
3.88545194129061,6.58156173733237,-1.22357388174686,57.1699535307179
3.88744855832484,6.58420996897764,-1.2244342445546,56.9354425128493
3.88943990377316,6.58685205238802,-1.22529256159358,56.7020714013333
3.89142599053715,6.58948800256203,-1.22614883785761,56.4698346345514
3.8934068314869,6.59211783446157,-1.22700307832826,56.2387266780234
3.89538243946104,6.59474156301197,-1.22785528797495,56.008742024274
3.89735282726685,6.59735920310213,-1.22870547175496,55.7798751927019
3.89931800768032,6.59997076958456,-1.22955363461346,55.552120729448
3.90127799344622,6.6025762772755,-1.23039978148354,55.3254732072653
3.90323279727821,6.60517574095499,-1.23124391728624,55.0999272253888
3.90518243185887,6.60776917536698,-1.23208604693058,54.8754774094068
3.90712690983981,6.61035659521941,-1.23292617531359,54.6521184111318
3.90906624384172,6.61293801518427,-1.23376430732034,54.4298449084721
3.91100044645449,6.61551344989772,-1.23460044782396,54.208651605306
3.91292953023722,6.6180829139602,-1.23543460168568,53.9885332313533
3.91485350771834,6.62064642193644,-1.23626677375486,53.7694845420505
3.9167723913957,6.62320398835562,-1.23709696886901,53.5515003184247
3.91868619373658,6.62575562771142,-1.23792519185382,53.3345753669689
3.92059492717784,6.62830135446214,-1.2387514475232,53.1187045195174
3.92249860412593,6.63084118303073,-1.23957574067929,52.9038826331231
3.924397236957,6.63337512780492,-1.24039807611252,52.6901045899331
3.92629083801699,6.63590320313732,-1.2412184586016,52.4773652970675
3.92817941962165,6.63842542334545,-1.24203689291357,52.2656596864967
3.93006299405667,6.64094180271187,-1.24285338380384,52.0549827149206
3.9319415735777,6.64345235548426,-1.24366793601618,51.8453293636477
3.93381517041047,6.64595709587549,-1.24448055428279,51.6366946384749
3.93568379675084,6.64845603806371,-1.24529124332431,51.4290735695687
3.93754746476489,6.65094919619245,-1.24610000784984,51.2224612113452
3.93940618658895,6.65343658437067,-1.24690685255699,51.016852642353
3.94125997432973,6.6559182166729,-1.24771178213187,50.8122429651544
3.94310884006436,6.65839410713925,-1.24851480124918,50.6086273062085
3.94495279584046,6.66086426977558,-1.24931591457217,50.4060008157554
3.94679185367621,6.66332871855351,-1.25011512675272,50.2043586676987
3.94862602556046,6.66578746741053,-1.25091244243133,50.0036960594915
3.95045532345275,6.6682405302501,-1.25170786623718,49.8040082120203
3.95227975928342,6.67068792094171,-1.25250140278812,49.6052903694914
3.95409934495364,6.67312965332099,-1.25329305669076,49.4075377993172
3.95591409233553,6.67556574118973,-1.25408283254041,49.2107457920019
3.95772401327221,6.67799619831607,-1.25487073492119,49.0149096610304
3.95952911957786,6.68042103843446,-1.255656768406,48.8200247427549
3.96132942303779,6.68284027524584,-1.25644093755659,48.6260863962839
3.96312493540855,6.68525392241767,-1.25722324692356,48.4330900033707
3.96491566841793,6.68766199358402,-1.25800370104638,48.2410309683039
3.96670163376511,6.69006450234567,-1.25878230445345,48.0499047177962
3.96848284312066,6.69246146227017,-1.2595590616621,47.8597067008755
3.97025930812665,6.69485288689194,-1.26033397717863,47.6704323887768
3.97203104039673,6.69723878971232,-1.26110705549832,47.4820772748322
3.97379805151616,6.69961918419968,-1.2618783011055,47.2946368743645
3.97556035304188,6.70199408378951,-1.2626477184735,47.1081067245793
3.97731795650265,6.70436350188444,-1.26341531206476,46.9224823844583
3.97907087339901,6.70672745185442,-1.26418108633082,46.737759434653
3.98081911520344,6.70908594703669,-1.26494504571231,46.553933477379
3.9825626933604,6.71143900073593,-1.26570719463906,46.3710001363108
3.98430161928636,6.71378662622434,-1.26646753753004,46.1889550564771
3.98603590436993,6.71612883674167,-1.26722607879345,46.0077939041567
3.98776555997189,6.71846564549536,-1.26798282282672,45.8275123667745
3.98949059742527,6.72079706566055,-1.26873777401653,45.6481061527985
3.9912110280354,6.72312311038025,-1.26949093673884,45.4695709916373
3.99292686308,6.72544379276532,-1.27024231535893,45.2919026335376
3.99463811380927,6.72775912589462,-1.27099191423143,45.1150968494828
3.99634479144588,6.73006912281505,-1.27173973770031,44.9391494310916
3.99804690718511,6.73237379654165,-1.27248579009894,44.7640561905172
3.99974447219488,6.73467316005767,-1.27323007575009,44.5898129603479
4.00143749761586,6.73696722631464,-1.27397259896601,44.416415593506
4.00312599456146,6.73925600823246,-1.27471336404836,44.2438599631502
4.00480997411796,6.74153951869947,-1.27545237528835,44.0721419625752
4.00648944734458,6.74381777057252,-1.27618963696667,43.9012575051149
4.00816442527348,6.74609077667708,-1.27692515335356,43.7312025240436
4.00983491890991,6.74835854980725,-1.27765892870884,43.5619729724793
4.01150093923221,6.75062110272592,-1.27839096728191,43.3935648232866
4.01316249719191,6.75287844816478,-1.27912127331181,43.2259740689804
4.01481960371379,6.75513059882443,-1.2798498510272,43.0591967216299
4.01647226969594,6.75737756737446,-1.28057670464644,42.8932288127637
4.01812050600983,6.75961936645348,-1.28130183837756,42.7280663932741
4.01976432350037,6.76185600866927,-1.28202525641833,42.5637055333229
4.02140373298596,6.76408750659877,-1.28274696295625,42.4001423222478
4.02303874525861,6.76631387278823,-1.28346696216859,42.2373728684683
4.02466937108393,6.76853511975325,-1.28418525822245,42.0753932993927
4.02629562120126,6.77075125997885,-1.28490185527471,41.9141997613256
4.02791750632367,6.77296230591956,-1.28561675747211,41.7537884193757
4.02953503713811,6.77516826999948,-1.28632996895128,41.5941554573636
4.03114822430536,6.77736916461238,-1.28704149383871,41.4352970777314
4.03275707846022,6.77956500212173,-1.28775133625083,41.2772095014509
4.03436161021147,6.78175579486083,-1.28845950029403,41.1198889679335
4.03596183014198,6.78394155513283,-1.28916599006464,40.9633317349406
4.03755774880878,6.78612229521084,-1.28987080964901,40.8075340784935
4.0391493767431,6.788298027338,-1.29057396312348,40.6524922927849
4.04073672445044,6.79046876372752,-1.29127545455446,40.4982026900894
4.04231980241066,6.7926345165628,-1.29197528799841,40.3446616006761
4.043898621078,6.79479529799746,-1.29267346750189,40.1918653727205
4.04547319088115,6.79695112015547,-1.29336999710158,40.0398103722168
4.04704352222334,6.79910199513114,-1.29406488082427,39.8884929828915
4.0486096254824,6.80124793498926,-1.29475812268696,39.7379096061164
4.05017151101078,6.80338895176516,-1.29544972669681,39.588056660823
4.05172918913565,6.80552505746475,-1.29613969685118,39.4389305834162
4.05328267015897,6.80765626406464,-1.2968280371377,39.2905278276895
4.0548319643575,6.80978258351216,-1.29751475153423,39.1428448647402
4.05637708198292,6.81190402772547,-1.29819984400893,38.9958781828844
4.05791803326186,6.81402060859362,-1.29888331852025,38.8496242875739
4.05945482839597,6.81613233797661,-1.299565179017,38.7040797013114
4.06098747756197,6.81823922770549,-1.30024542943832,38.5592409635685
4.06251599091174,6.82034128958238,-1.30092407371373,38.415104630702
4.06404037857232,6.82243853538061,-1.30160111576316,38.2716672758722
4.06556065064606,6.82453097684471,-1.30227655949696,38.1289254889604
4.0670768172106,6.82661862569056,-1.30295040881593,37.9868758764873
4.06858888831897,6.8287014936054,-1.30362266761134,37.8455150615323
4.07009687399964,6.83077959224793,-1.30429333976495,37.7048396836521
4.07160078425657,6.83285293324837,-1.30496242914906,37.5648463988009
4.07310062906932,6.83492152820854,-1.30562993962648,37.4255318792498
4.07459641839302,6.83698538870191,-1.30629587505061,37.2868928135077
4.07608816215852,6.83904452627369,-1.30696023926541,37.1489259062416
4.0775758702724,6.84109895244088,-1.30762303610549,37.011627878198
4.07905955261702,6.84314867869234,-1.30828426939606,36.8749954661248
4.08053921905062,6.8451937164889,-1.30894394295299,36.7390254226923
4.08201487940736,6.84723407726337,-1.30960206058284,36.6037145164165
4.08348654349736,6.84926977242063,-1.31025862608288,36.469059531581
4.08495422110678,6.85130081333773,-1.31091364324108,36.3350572681606
4.08641792199788,6.85332721136388,-1.31156711583617,36.2017045417445
4.08787765590908,6.85534897782063,-1.31221904763766,36.0689981834602
4.08933343255497,6.85736612400183,-1.31286944240582,35.9369350398974
4.09078526162646,6.85937866117377,-1.31351830389178,35.8055119730329
4.09223315279076,6.8613866005752,-1.31416563583747,35.6747258601556
4.09367711569146,6.86338995341742,-1.3148114419757,35.5445735937911
4.09511715994861,6.86538873088437,-1.31545572603016,35.4150520816285
4.09655329515873,6.86738294413265,-1.31609849171542,35.2861582464451
4.09798553089493,6.8693726042916,-1.31673974273702,35.1578890260335
4.09941387670692,6.87135772246341,-1.31737948279141,35.0302413731287
4.10083834212106,6.87333830972311,-1.31801771556603,34.9032122553346
4.10225893664048,6.87531437711871,-1.31865444473931,34.7767986550511
4.10367566974507,6.87728593567122,-1.31928967398069,34.650997569403
4.10508855089156,6.87925299637472,-1.31992340695065,34.5258060101671
4.10649758951358,6.88121557019647,-1.32055564730073,34.4012210037014
4.10790279502172,6.8831736680769,-1.32118639867355,34.2772395908737
4.10930417680358,6.88512730092974,-1.32181566470283,34.1538588269906
4.11070174422382,6.88707647964206,-1.32244344901342,34.0310757817274
4.11209550662424,6.88902121507433,-1.3230697552213,33.9088875390578
4.1134854733238,6.89096151806051,-1.32369458693364,33.7872911971842
4.11487165361871,6.89289739940806,-1.32431794774879,33.6662838684681
4.11625405678245,6.89482886989808,-1.32493984125629,33.5458626793612
4.11763269206588,6.89675594028532,-1.32556027103695,33.4260247703368
4.11900756869722,6.89867862129826,-1.3261792406628,33.3067672958207
4.12037869588217,6.90059692363917,-1.32679675369716,33.1880874241242
4.12174608280394,6.90251085798419,-1.32741281369464,33.0699823373752
4.12310973862331,6.90442043498337,-1.32802742420118,32.9524492314516
4.12446967247867,6.90632566526076,-1.32864058875405,32.8354853159139
4.1258258934861,6.90822655941445,-1.32925231088187,32.7190878139383
4.12717841073939,6.91012312801664,-1.32986259410465,32.6032539622506
4.12852723331013,6.91201538161371,-1.33047144193381,32.48798101106
4.12987237024774,6.91390333072628,-1.33107885787218,32.3732662239929
4.13121383057956,6.91578698584929,-1.33168484541404,32.2591068780278
4.13255162331083,6.917666357452,-1.33228940804512,32.1455002634304
4.13388575742483,6.91954145597814,-1.33289254924267,32.0324436836884
4.13521624188289,6.92141229184592,-1.33349427247541,31.9199344554466
4.13654308562442,6.92327887544808,-1.3340945812036,31.8079699084438
4.13786629756703,6.92514121715201,-1.33469347887906,31.6965473854475
4.13918588660652,6.92699932729975,-1.33529096894516,31.585664242192
4.14050186161696,6.92885321620808,-1.33588705483687,31.4753178473132
4.14181423145076,6.9307028941686,-1.33648173998076,31.3655055822875
4.14312300493868,6.93254837144775,-1.33707502779504,31.2562248413678
4.14442819088993,6.93438965828691,-1.33766692168957,31.1474730315219
4.14572979809218,6.93622676490243,-1.33825742506587,31.03924757237
4.14702783531165,6.93805970148571,-1.33884654131717,30.9315458961234
4.14832231129312,6.93988847820325,-1.33943427382839,30.8243654475226
4.14961323476005,6.94171310519675,-1.34002062597619,30.7177036837768
4.15090061441454,6.94353359258309,-1.34060560112899,30.6115580745022
4.15218445893747,6.94534995045447,-1.34118920264698,30.5059261016622
4.15346477698849,6.94716218887842,-1.34177143388213,30.4008052595068
4.1547415772061,6.94897031789791,-1.34235229817823,30.2961930545127
4.15601486820772,6.95077434753134,-1.34293179887091,30.1920870053237
4.15728465858968,6.95257428777267,-1.34350993928763,30.0884846426912
4.15855095692734,6.95437014859142,-1.34408672274776,29.9853835094154
4.15981377177509,6.95616193993278,-1.34466215256252,29.8827811602861
4.16107311166644,6.95794967171765,-1.34523623203507,29.7806751620246
4.16232898511405,6.95973335384268,-1.34580896446048,29.6790630932252
4.16358140060977,6.96151299618036,-1.3463803531258,29.5779425442974
4.16483036662472,6.96328860857906,-1.34695040131002,29.4773111174082
4.16607589160933,6.96506020086309,-1.34751911228415,29.3771664264246
4.16731798399337,6.96682778283277,-1.34808648931118,29.277506096857
4.16855665218603,6.96859136426449,-1.34865253564615,29.1783277658018
4.16979190457594,6.97035095491074,-1.34921725453614,29.0796290818851
4.17102374953127,6.9721065645002,-1.3497806492203,28.9814077052064
4.1722521953997,6.97385820273778,-1.35034272292988,28.8836613072828
4.17347725050857,6.9756058793047,-1.35090347888823,28.786387570993
4.17469892316483,6.97734960385852,-1.3514629203108,28.6895841905223
4.17591722165518,6.97908938603321,-1.35202105040523,28.5932488713067
4.17713215424603,6.98082523543921,-1.3525778723713,28.4973793299788
4.17834372918364,6.98255716166349,-1.35313338940097,28.4019732943127
4.17955195469409,6.9842851742696,-1.35368760467842,28.3070285031696
4.18075683898339,6.98600928279772,-1.35424052138004,28.2125427064441
4.18195839023749,6.98772949676475,-1.35479214267446,28.11851366501
4.18315661662234,6.98944582566433,-1.35534247172258,28.0249391506666
4.18435152628396,6.9911582789669,-1.35589151167756,27.9318169460859
4.18554312734844,6.99286686611979,-1.35643926568489,27.8391448447595
4.18673142792205,6.99457159654724,-1.35698573688235,27.7469206509448
4.18791643609124,6.99627247965046,-1.35753092840007,27.6551421796139
4.1890981599227,6.99796952480774,-1.35807484336051,27.5638072564006
4.19027660746343,6.9996627413744,-1.35861748487853,27.4729137175481
4.19145178674075,7.00135213868296,-1.35915885606138,27.382459409858
4.1926237057624,7.00303772604312,-1.3596989600087,27.292442190638
4.19379237251654,7.00471951274185,-1.36023779981258,27.202859927651
4.1949577949718,7.00639750804343,-1.36077537855754,27.1137104990644
4.19611998107738,7.00807172118951,-1.36131169932057,27.0249917933987
4.19727893876303,7.00974216139916,-1.36184676517116,26.9367017094772
4.19843467593914,7.01140883786896,-1.36238057917128,26.8488381563762
4.19958720049677,7.013071759773,-1.36291314437543,26.7613990533742
4.20073652030772,7.01473093626296,-1.36344446383065,26.6743823299028
4.20188264322454,7.01638637646818,-1.36397454057654,26.5877859254965
4.2030255770806,7.01803808949569,-1.36450337764527,26.5016077897442
4.20416532969015,7.01968608443029,-1.3650309780616,26.4158458822392
4.20530190884833,7.02133037033458,-1.3655573448429,26.3304981725314
4.20643532233124,7.02297095624902,-1.3660824809992,26.2455626400777
4.20756557789599,7.02460785119198,-1.36660638953313,26.1610372741946
4.20869268328075,7.02624106415983,-1.36712907344002,26.0769200740093
4.20981664620477,7.02787060412694,-1.36765053570787,25.9932090484125
4.21093747436844,7.02949648004577,-1.36817077931738,25.9099022160101
4.21205517545336,7.03111870084692,-1.36868980724198,25.8269976050764
4.21316975712233,7.03273727543915,-1.36920762244782,25.7444932535064
4.21428122701947,7.03435221270949,-1.36972422789383,25.6623872087695
4.2153895927702,7.03596352152324,-1.37023962653169,25.580677527862
4.21649486198131,7.03757121072406,-1.37075382130586,25.4993622772611
4.21759704224103,7.039175289134,-1.37126681515365,25.4184395328788
4.21869614111903,7.04077576555358,-1.37177861100516,25.3379073800152
4.21979216616649,7.04237264876178,-1.37228921178334,25.2577639133134
4.22088512491616,7.04396594751619,-1.372798620404,25.1780072367136
4.22197502488238,7.04555567055297,-1.37330683977584,25.0986354634074
4.22306187356111,7.04714182658696,-1.37381387280044,25.0196467157935
4.22414567843004,7.04872442431172,-1.3743197223723,24.9410391254319
4.22522644694856,7.05030347239954,-1.37482439137885,24.8628108329998
4.22630418655784,7.05187897950157,-1.37532788270046,24.7849599882468
4.22737890468089,7.0534509542478,-1.37583019921046,24.7074847499506
4.22845060872258,7.05501940524715,-1.37633134377519,24.6303832858732
4.22951930606967,7.05658434108752,-1.37683131925396,24.5536537727169
4.2305850040909,7.05814577033582,-1.3773301284991,24.4772943960807
4.231647710137,7.05970370153803,-1.37782777435599,24.401303350417
4.23270743154074,7.06125814321929,-1.37832425966303,24.325678838988
4.23376417561698,7.06280910388387,-1.37881958725171,24.2504190738233
4.2348179496627,7.0643565920153,-1.37931375994661,24.1755222756766
4.23586876095707,7.06590061607637,-1.37980678056538,24.1009866739835
4.23691661676147,7.06744118450922,-1.38029865191882,24.0268105068189
4.23796152431954,7.06897830573535,-1.38078937681084,23.9529920208551
4.23900349085722,7.07051198815569,-1.38127895803852,23.8795294713194
4.24004252358281,7.07204224015067,-1.38176739839208,23.806421121953
4.24107862968699,7.07356907008022,-1.38225470065497,23.7336652449687
4.24211181634288,7.07509248628388,-1.38274086760379,23.6612601210103
4.24314209070606,7.07661249708079,-1.38322590200839,23.5892040391107
4.24416945991466,7.07812911076981,-1.38370980663185,23.517495296652
4.24519393108934,7.07964233562948,-1.38419258423049,23.4461321993237
4.24621551133339,7.08115217991817,-1.38467423755391,23.3751130610825
4.24723420773273,7.08265865187403,-1.38515476934499,23.3044362041126
4.24825002735598,7.08416175971513,-1.38563418233989,23.2340999587845
4.24926297725448,7.08566151163943,-1.38611247926813,23.1641026636158
4.25027306446236,7.08715791582489,-1.38658966285251,23.0944426652312
4.25128029599655,7.08865098042949,-1.38706573580923,23.025118318323
4.25228467885685,7.09014071359128,-1.38754070084781,22.9561279856117
4.25328622002596,7.09162712342843,-1.38801456067119,22.8874700378069
4.25428492646951,7.09311021803929,-1.38848731797569,22.8191428535678
4.25528080513612,7.09459000550241,-1.38895897545103,22.7511448194656
4.25627386295744,7.09606649387664,-1.38942953578038,22.6834743299434
4.25726410684818,7.09753969120112,-1.38989900164036,22.6161297872792
4.25825154370616,7.09900960549535,-1.39036737570103,22.5491096015464
4.25923618041234,7.10047624475926,-1.39083466062595,22.4824121905769
4.26021802383089,7.10193961697323,-1.39130085907216,22.4160359799223
4.2611970808092,7.10339973009815,-1.39176597369021,22.3499794028169
4.26217335817792,7.10485659207546,-1.39223000712418,22.2842409001399
4.26314686275103,7.10631021082721,-1.3926929620117,22.218818920378
4.26411760132587,7.1077605942561,-1.39315484098394,22.1537119195886
4.26508558068315,7.10920775024551,-1.39361564666565,22.0889183613627
4.26605080758703,7.11065168665959,-1.39407538167518,22.024436716788
4.26701328878515,7.11209241134326,-1.39453404862446,21.9602654644125
4.26797303100865,7.11352993212229,-1.39499165011906,21.8964030902081
4.26893004097225,7.11496425680333,-1.39544818875818,21.8328480875344
4.26988432537424,7.11639539317396,-1.39590366713468,21.7695989571023
4.27083589089656,7.11782334900275,-1.39635808783506,21.7066542069387
4.27178474420483,7.11924813203929,-1.39681145343953,21.6440123523503
4.27273089194837,7.12066975001422,-1.39726376652198,21.5816719158884
4.27367434076028,7.12208821063933,-1.39771502965003,21.5196314273133
4.27461509725744,7.12350352160755,-1.398165245385,21.4578894235595
4.27555316804056,7.12491569059302,-1.398614416282,21.3964444487002
4.27648855969424,7.12632472525117,-1.39906254488984,21.3352950539128
4.27742127878698,7.12773063321867,-1.39950963375115,21.2744397974442
4.27835133187124,7.1291334221136,-1.39995568540233,21.2138772445763
4.27927872548348,7.13053309953539,-1.40040070237359,21.1536059675916
4.28020346614419,7.13192967306492,-1.40084468718896,21.0936245457388
4.2811255603579,7.13332315026455,-1.4012876423663,21.0339315651995
4.2820450146133,7.13471353867818,-1.40172957041732,20.9745256190537
4.28296183538319,7.13610084583128,-1.40217047384759,20.9154053072465
4.28387602912458,7.13748507923093,-1.40261035515659,20.8565692365544
4.28478760227869,7.13886624636588,-1.40304921683764,20.7980160205521
4.285696561271,7.14024435470658,-1.40348706137803,20.7397442795793
4.28660291251132,7.14161941170524,-1.40392389125892,20.6817526407077
4.28750666239378,7.14299142479588,-1.40435970895546,20.624039737708
4.28840781729689,7.14436040139433,-1.40479451693671,20.5666042110175
4.28930638358359,7.14572634889834,-1.40522831766573,20.5094447077073
4.29020236760125,7.14708927468757,-1.40566111359954,20.4525598814501
4.29109577568177,7.14844918612365,-1.40609290718917,20.395948392488
4.29198661414154,7.14980609055026,-1.40652370087968,20.3396089076002
4.29287488928156,7.15115999529311,-1.40695349711013,20.2835401000712
4.29376060738741,7.15251090766002,-1.40738229831363,20.2277406496596
4.29464377472932,7.15385883494099,-1.40781010691735,20.1722092425656
4.29552439756221,7.15520378440817,-1.40823692534253,20.1169445714
4.29640248212571,7.15654576331598,-1.4086627560045,20.0619453351533
4.29727803464421,7.15788477890111,-1.40908760131269,20.0072102391637
4.29815106132691,7.15922083838258,-1.40951146367064,19.9527379950872
4.2990215683678,7.16055394896175,-1.40993434547601,19.8985273208657
4.29988956194578,7.16188411782243,-1.41035624912063,19.8445769406972
4.30075504822463,7.16321135213086,-1.41077717699046,19.7908855850045
4.30161803335309,7.16453565903578,-1.41119713146564,19.7374519904056
4.30247852346487,7.16585704566847,-1.41161611492052,19.684274899683
4.30333652467869,7.16717551914279,-1.41203412972361,19.6313530617535
4.30419204309833,7.16849108655523,-1.41245117823766,19.5786852316388
4.30504508481265,7.16980375498492,-1.41286726281965,19.5262701704352
4.30589565589565,7.17111353149375,-1.41328238582078,19.4741066452842
4.30674376240648,7.1724204231263,-1.41369654958654,19.422193429343
4.30758941038949,7.17372443691,-1.41410975645667,19.3705293017549
4.30843260587427,7.17502557985508,-1.41452200876519,19.3191130476208
4.30927335487566,7.17632385895465,-1.41493330884044,19.267943457969
4.31011166339383,7.17761928118475,-1.41534365900504,19.2170193297274
4.31094753741428,7.17891185350438,-1.41575306157598,19.1663394656938
4.31178098290789,7.18020158285554,-1.41616151886455,19.1159026745079
4.31261200583095,7.18148847616325,-1.41656903317642,19.0657077706227
4.31344061212519,7.18277254033567,-1.41697560681161,19.0157535742758
4.31426680771786,7.18405378226402,-1.41738124206455,18.9660389114615
4.31509059852169,7.18533220882275,-1.41778594122403,18.9165626139023
4.31591199043498,7.18660782686947,-1.41818970657327,18.8673235190217
4.31673098934163,7.18788064324508,-1.41859254038992,18.8183204699154
4.31754760111115,7.18915066477373,-1.41899444494604,18.7695523153247
4.31836183159872,7.19041789826293,-1.41939542250817,18.7210179096079
4.31917368664521,7.19168235050356,-1.41979547533728,18.6727161127136
4.31998317207724,7.19294402826991,-1.42019460568886,18.6246457901533
4.32079029370716,7.19420293831971,-1.42059281581285,18.576805812974
4.32159505733315,7.1954590873942,-1.42099010795373,18.5291950577315
4.32239746873921,7.19671248221815,-1.42138648435046,18.481812406463
4.32319753369523,7.1979631294999,-1.42178194723655,18.4346567466613
4.32399525795697,7.19921103593141,-1.42217649884008,18.3877269712472
4.32479064726617,7.2004562081883,-1.42257014138363,18.3410219785436
4.32558370735051,7.20169865292988,-1.42296287708441,18.2945406722487
4.32637444392368,7.20293837679917,-1.42335470815417,18.2482819614104
4.32716286268544,7.20417538642301,-1.42374563679928,18.2022447603996
4.3279489693216,7.20540968841201,-1.42413566522072,18.1564279888845
4.32873276950408,7.20664128936067,-1.42452479561409,18.1108305718048
4.32951426889094,7.20787019584735,-1.42491303016962,18.0654514393456
4.33029347312645,7.20909641443437,-1.4253003710722,18.0202895269124
4.33107038784105,7.210319951668,-1.42568682050138,17.9753437751052
4.33184501865145,7.21154081407853,-1.42607238063138,17.9306131296932
4.33261737116063,7.21275900818031,-1.42645705363112,17.8860965415898
4.33338745095788,7.21397454047175,-1.42684084166422,17.8417929668271
4.33415526361884,7.21518741743541,-1.42722374688901,17.7977013665315
4.33492081470553,7.21639764553802,-1.42760577145855,17.7538207068983
4.33568410976637,7.21760523123049,-1.42798691752064,17.7101499591672
4.33644515433625,7.218810180948,-1.42836718721783,17.6666880995975
4.3372039539365,7.22001250110999,-1.42874658268745,17.6234341094442
4.337960514075,7.22121219812025,-1.4291251060616,17.5803869749328
4.33871484024616,7.22240927836689,-1.42950275946717,17.5375456872357
4.33946693793096,7.22360374822244,-1.42987954502585,17.4949092424475
4.34021681259699,7.22479561404386,-1.43025546485417,17.4524766415615
4.34096446969849,7.22598488217259,-1.43063052106346,17.4102468904456
4.34170991467638,7.22717155893457,-1.43100471575992,17.3682189998185
4.34245315295827,7.2283556506403,-1.43137805104458,17.3263919852258
4.34319418995853,7.22953716358485,-1.43175052901337,17.2847648670169
4.3439330310783,7.23071610404792,-1.43212215175706,17.2433366703214
4.3446696817055,7.23189247829389,-1.43249292136135,17.2021064250254
4.34540414721492,7.23306629257181,-1.43286283990683,17.161073165749
4.3461364329682,7.23423755311549,-1.433231909469,17.1202359318222
4.34686654431389,7.2354062661435,-1.4336001321183,17.0795937672632
4.34759448658747,7.23657243785923,-1.43396750992011,17.0391457207545
4.34832026511139,7.2377360744509,-1.43433404493478,16.9988908456203
4.34904388519508,7.23889718209165,-1.43469973921759,16.9588281998044
4.34976535213503,7.2400557669395,-1.43506459481884,16.9189568458472
4.35048467121475,7.24121183513746,-1.4354286137838,16.8792758508632
4.35120184770489,7.24236539281352,-1.43579179815274,16.839784286519
4.35191688686318,7.2435164460807,-1.43615414996097,16.8004812290108
4.35262979393453,7.24466500103712,-1.43651567123881,16.7613657590425
4.35334057415103,7.24581106376595,-1.43687636401162,16.7224369618037
4.35404923273199,7.24695464033555,-1.43723623029983,16.6836939269476
4.35475577488397,7.24809573679944,-1.4375952721189,16.6451357485696
4.3554602058008,7.24923435919635,-1.43795349147941,16.6067615251851
4.35616253066364,7.25037051355027,-1.43831089038699,16.5685703597083
4.35686275464097,7.25150420587046,-1.43866747084241,16.5305613594308
4.35756088288866,7.25263544215152,-1.43902323484151,16.4927336360001
4.35825692054998,7.2537642283734,-1.4393781843753,16.4550863053981
4.35895087275564,7.25489057050145,-1.43973232142988,16.4176184879204
4.3596427446238,7.25601447448644,-1.44008564798654,16.380329308155
4.36033254126013,7.2571359462646,-1.44043816602171,16.3432178949615
4.36102026775782,7.25825499175768,-1.44078987750699,16.3062833814499
4.36170592919762,7.25937161687296,-1.44114078440917,16.2695249049603
4.36238953064787,7.26048582750328,-1.44149088869023,16.2329416070422
4.36307107716453,7.26159762952709,-1.44184019230738,16.1965326334336
4.36375057379119,7.26270702880849,-1.44218869721302,16.1602971340408
4.36442802555914,7.26381403119726,-1.44253640535479,16.1242342629182
4.36510343748737,7.26491864252888,-1.44288331867558,16.088343178248
4.3657768145826,7.26602086862457,-1.44322943911353,16.0526230423197
4.36644816183935,7.26712071529136,-1.44357476860205,16.0170730215106
4.36711748423989,7.26821818832206,-1.44391930906982,15.9816922862654
4.36778478675436,7.26931329349537,-1.44426306244081,15.9464800110766
4.36845007434073,7.27040603657584,-1.44460603063429,15.9114353744648
4.36911335194488,7.27149642331395,-1.44494821556485,15.8765575589589
4.36977462450059,7.27258445944616,-1.4452896191424,15.8418457510764
4.37043389692959,7.27367015069488,-1.44563024327218,15.8072991413043
4.37109117414159,7.27475350276857,-1.44597008985478,15.7729169240795
4.37174646103431,7.27583452136173,-1.44630916078615,15.7386982977695
4.37239976249349,7.27691321215497,-1.44664745795759,15.7046424646535
4.37305108339296,7.27798958081501,-1.44698498325582,15.6707486309029
4.3737004285946,7.27906363299472,-1.4473217385629,15.6370160065626
4.37434780294845,7.2801353743332,-1.44765772575634,15.603443805532
4.3749932112927,7.28120481045573,-1.44799294670905,15.5700312455463
4.37563665845369,7.28227194697388,-1.44832740328933,15.5367775481574
4.37627814924601,7.28333678948551,-1.44866109736098,15.503681938716
4.37691768847244,7.2843993435748,-1.44899403078319,15.4707436463522
4.37755528092408,7.28545961481229,-1.44932620541064,15.4379619039579
4.37819093138028,7.28651760875492,-1.44965762309347,15.4053359481677
4.37882464460873,7.28757333094605,-1.4499882856773,15.372865019341
4.37945642536549,7.28862678691552,-1.45031819500325,15.3405483615441
4.38008627839497,7.28967798217963,-1.45064735290794,15.3083852225315
4.38071420843001,7.29072692224124,-1.45097576122349,15.2763748537282
4.38134022019189,7.29177361258974,-1.45130342177757,15.2445165102121
4.38196431839033,7.29281805870114,-1.45163033639335,15.2128094506955
4.38258650772357,7.29386026603804,-1.45195650688959,15.1812529375082
4.38320679287837,7.29490024004974,-1.45228193508058,15.1498462365788
4.38382517853002,7.2959379861722,-1.45260662277618,15.1185886174183
4.38444166934241,7.29697350982811,-1.45293057178184,15.0874793531017
4.38505626996803,7.29800681642692,-1.45325378389858,15.0565177202511
4.38566898504799,7.29903791136485,-1.45357626092304,15.0257029990182
4.38627981921208,7.30006680002497,-1.45389800464748,14.9950344730672
4.38688877707876,7.30109348777718,-1.45421901685975,14.9645114295574
4.38749586325524,7.30211797997826,-1.45453929934336,14.9341331591266
4.38810108233743,7.30314028197192,-1.45485885387745,14.9038989558737
4.38870443891006,7.30416039908882,-1.45517768223682,14.8738081173421
4.38930593754661,7.30517833664659,-1.45549578619193,14.8438599445025
4.38990558280942,7.30619409994986,-1.45581316750893,14.8140537417368
4.39050337924968,7.30720769429034,-1.45612982794963,14.7843888168207
4.39109933140744,7.30821912494678,-1.45644576927157,14.7548644809081
4.3916934438117,7.30922839718504,-1.45676099322796,14.7254800485133
4.39228572098034,7.31023551625815,-1.45707550156776,14.6962348374962
4.39287616742026,7.31124048740628,-1.45738929603563,14.6671281690443
4.3934647876273,7.3122433158568,-1.457702378372,14.638159367658
4.39405158608635,7.31324400682432,-1.45801475031302,14.6093277611334
4.39463656727133,7.31424256551072,-1.45832641359061,14.5806326805464
4.39521973564522,7.31523899710517,-1.45863736993246,14.5520734602372
4.39580109566013,7.31623330678415,-1.45894762106205,14.5236494377938
4.39638065175725,7.31722549971152,-1.45925716869864,14.4953599540364
4.39695840836694,7.31821558103852,-1.45956601455728,14.4672043530016
4.39753436990876,7.31920355590381,-1.45987416034884,14.4391819819268
4.39810854079143,7.32018942943347,-1.46018160778003,14.4112921912342
4.39868092541292,7.32117320674111,-1.46048835855335,14.383534334516
4.39925152816047,7.3221548929278,-1.46079441436719,14.355907768518
4.39982035341056,7.3231344930822,-1.46109977691576,14.3284118531251
4.40038740552903,7.3241120122805,-1.46140444788913,14.3010459513454
4.40095268887102,7.3250874555865,-1.46170842897325,14.2738094292949
4.40151620778103,7.32606082805166,-1.46201172184996,14.246701656183
4.40207796659296,7.32703213471506,-1.46231432819699,14.2197220042967
4.40263796963012,7.3280013806035,-1.46261624968795,14.192869848986
4.40319622120525,7.3289685707315,-1.46291748799239,14.1661445686485
4.40375272562056,7.32993371010132,-1.46321804477576,14.1395455447152
4.40430748716774,7.33089680370301,-1.46351792169947,14.1130721616353
4.40486051012801,7.33185785651443,-1.46381712042083,14.0867238068613
4.40541179877212,7.33281687350128,-1.46411564259315,14.0604998708348
4.40596135736039,7.33377385961714,-1.46441348986566,14.0343997469714
4.40650919014273,7.33472881980349,-1.46471066388359,14.0084228316466
4.40705530135867,7.33568175898971,-1.46500716628814,13.9825685241814
4.40759969523738,7.33663268209319,-1.46530299871649,13.9568362268275
4.4081423759977,7.33758159401928,-1.46559816280184,13.9312253447531
4.40868334784816,7.33852849966134,-1.4658926601734,13.9057352860293
4.409222614987,7.33947340390081,-1.46618649245638,13.8803654616151
4.40976018160222,7.34041631160717,-1.46647966127205,13.8551152853437
4.41029605187159,7.34135722763804,-1.46677216823769,13.8299841739085
4.41083022996265,7.34229615683915,-1.46706401496666,13.804971546849
4.41136272003279,7.3432331040444,-1.46735520306834,13.7800768265369
4.4118935262292,7.34416807407591,-1.46764573414822,13.7552994381628
4.41242265268899,7.34510107174398,-1.46793560980785,13.7306388097214
4.41295010353913,7.34603210184719,-1.46822483164486,13.706094371999
4.4134758828965,7.34696116917238,-1.46851340125299,13.6816655585589
4.41399999486795,7.34788827849472,-1.46880132022208,13.6573518057284
4.41452244355028,7.3488134345777,-1.46908859013809,13.6331525525853
4.41504323303029,7.34973664217318,-1.46937521258311,13.6090672409441
4.41556236738478,7.35065790602142,-1.46966118913536,13.5850953153431
4.4160798506806,7.35157723085109,-1.46994652136921,13.5612362230308
4.41659568697467,7.35249462137932,-1.47023121085517,13.5374894139529
4.41710988031399,7.35341008231172,-1.47051525915993,13.5138543407389
4.41762243473567,7.35432361834239,-1.47079866784636,13.4903304586892
4.41813335426697,7.35523523415398,-1.47108143847349,13.4669172257618
4.41864264292531,7.35614493441771,-1.47136357259655,13.44361410256
4.41915030471827,7.35705272379337,-1.47164507176697,13.4204205523184
4.41965634364366,7.35795860692939,-1.47192593753241,13.3973360408911
4.42016076368953,7.35886258846282,-1.47220617143672,13.3743600367385
4.42066356883418,7.35976467301941,-1.47248577502,13.3514920109143
4.42116476304618,7.36066486521359,-1.47276474981858,13.3287314370533
4.4216643502844,7.36156316964854,-1.47304309736504,13.3060777913587
4.42216233449808,7.36245959091619,-1.47332081918821,13.2835305525894
4.42265871962675,7.36335413359725,-1.47359791681319,13.2610892020476
4.42315350960037,7.36424680226123,-1.47387439176137,13.2387532235665
4.42364670833927,7.36513760146651,-1.47415024555039,13.2165221034978
4.42413831975421,7.36602653576031,-1.47442547969421,13.1943953306995
4.42462834774638,7.36691360967876,-1.47470009570308,13.1723723965237
4.42511679620746,7.36779882774689,-1.47497409508358,13.1504527948043
4.42560366901962,7.36868219447871,-1.47524747933858,13.1286360218451
4.42608897005554,7.36956371437716,-1.4755202499673,13.1069215764074
4.42657270317843,7.37044339193423,-1.4757924084653,13.0853089596984
4.42705487224208,7.3713212316309,-1.47606395632447,13.0637976753591
4.42753548109085,7.37219723793724,-1.47633489503307,13.0423872294523
4.42801453355972,7.37307141531236,-1.47660522607571,13.021077130451
4.42849203347428,7.37394376820452,-1.4768749509334,12.9998668892264
4.4289679846508,7.37481430105109,-1.47714407108351,12.9787560190366
4.4294423908962,7.37568301827861,-1.4774125879998,12.9577440355143
4.42991525600813,7.37654992430281,-1.47768050315245,12.9368304566561
4.43038658377494,7.37741502352863,-1.47794781800803,12.91601480281
4.43085637797572,7.37827832035025,-1.47821453402954,12.8952965966646
4.43132464238035,7.37913981915113,-1.4784806526764,12.8746753632375
4.43179138074947,7.37999952430401,-1.47874617540446,12.8541506298639
4.43225659683457,7.38085744017095,-1.47901110366603,12.8337219261852
4.43272029437793,7.38171357110336,-1.47927543890986,12.813388784138
4.43318247711273,7.38256792144203,-1.47953918258116,12.7931507379426
4.433643148763,7.38342049551714,-1.47980233612162,12.7730073240921
4.43410231304369,7.38427129764829,-1.4800649009694,12.7529580813413
4.43455997366065,7.38512033214453,-1.48032687855915,12.7330025506952
4.43501613431071,7.38596760330439,-1.48058827032202,12.7131402753989
4.43547079868163,7.3868131154159,-1.48084907768565,12.6933708009258
4.4359239704522,7.38765687275662,-1.48110930207422,12.6736936749673
4.43637565329219,7.38849887959366,-1.4813689449084,12.6541084474216
4.43682585086242,7.38933914018369,-1.48162800760541,12.6346146703834
4.43727456681477,7.39017765877302,-1.481886491579,12.6152118981326
4.43772180479218,7.39101443959756,-1.48214439823947,12.5958996871239
4.4381675684287,7.39184948688289,-1.48240172899368,12.5766775959764
4.43861186134951,7.39268280484425,-1.48265848524504,12.5575451854628
4.43905468717092,7.39351439768659,-1.48291466839354,12.538502018499
4.43949604950041,7.39434426960462,-1.48317027983576,12.5195476601333
4.43993595193666,7.39517242478276,-1.48342532096486,12.5006816775367
4.44037439806952,7.39599886739524,-1.48367979317058,12.4819036399918
4.44081139148011,7.39682360160608,-1.4839336978393,12.4632131188829
4.44124693574078,7.39764663156914,-1.48418703635399,12.4446096876857
4.44168103441517,7.39846796142812,-1.48443981009424,12.4260929219572
4.44211369105818,7.39928759531662,-1.48469202043629,12.4076623993251
4.44254490921605,7.40010553735812,-1.484943668753,12.3893176994781
4.44297469242636,7.40092179166605,-1.48519475641388,12.3710584041559
4.44340304421804,7.40173636234378,-1.4854452847851,12.3528840971389
4.44382996811138,7.40254925348466,-1.4856952552295,12.3347943642384
4.44425546761811,7.40336046917205,-1.48594466910657,12.3167887932866
4.44467954624134,7.40417001347933,-1.4861935277725,12.2988669741271
4.44510220747564,7.40497789046992,-1.48644183258015,12.2810284986043
4.44552345480704,7.40578410419734,-1.48668958487909,12.2632729605546
4.44594329171306,7.4065886587052,-1.48693678601559,12.2455999557959
4.44636172166271,7.40739155802722,-1.48718343733263,12.2280090821183
4.44677874811654,7.40819280618728,-1.4874295401699,12.2104999392745
4.44719437452663,7.40899240719943,-1.48767509586383,12.1930721289702
4.44760860433663,7.40979036506792,-1.48792010574759,12.1757252548543
4.44802144098179,7.41058668378722,-1.48816457115109,12.1584589225097
4.44843288788895,7.41138136734203,-1.48840849340097,12.141272739444
4.44884294847659,7.41217441970733,-1.48865187382066,12.1241663150796
4.44925162615482,7.41296584484839,-1.48889471373034,12.1071392607448
4.44965892432545,7.4137556467208,-1.48913701444697,12.0901911896645
4.45006484638195,7.41454382927048,-1.4893787772843,12.0733217169504
4.45046939570951,7.4153303964337,-1.48962000355286,12.0565304595926
4.45087257568504,7.41611535213716,-1.48986069455999,12.0398170364498
4.45127438967723,7.41689870029792,-1.49010085160982,12.0231810682406
4.4516748410465,7.41768044482349,-1.4903404760033,12.006622177534
4.45207393314508,7.41846058961186,-1.49057956903823,11.9901399887408
4.45247166931702,7.41923913855146,-1.49081813200919,11.9737341281043
4.45286805289817,7.42001609552125,-1.49105616620765,11.9574042236916
4.45326308721626,7.42079146439071,-1.49129367292188,11.9411499053845
4.45365677559088,7.42156524901986,-1.49153065343704,11.9249708048707
4.45404912133349,7.42233745325931,-1.49176710903512,11.9088665556351
4.4544401277475,7.42310808095024,-1.49200304099501,11.8928367929509
4.45482979812821,7.42387713592448,-1.49223845059245,11.8768811538709
4.45521813576289,7.42464462200446,-1.49247333910007,11.8609992772188
4.45560514393077,7.42541054300332,-1.4927077077874,11.8451908035807
4.45599082590308,7.42617490272486,-1.49294155792086,11.8294553752964
4.45637518494305,7.42693770496358,-1.49317489076379,11.8137926364507
4.45675822430592,7.42769895350474,-1.49340770757642,11.798202232865
4.45713994723901,7.42845865212434,-1.49364000961594,11.782683812089
4.45752035698169,7.42921680458916,-1.49387179813642,11.7672370233922
4.45789945676541,7.42997341465677,-1.49410307438892,11.7518615177552
4.45827724981373,7.43072848607557,-1.49433383962139,11.7365569478616
4.45865373934234,7.43148202258482,-1.49456409507878,11.7213229680898
4.45902892855906,7.43223402791462,-1.49479384200296,11.7061592345045
4.45940282066389,7.43298450578598,-1.4950230816328,11.6910654048485
4.459775418849,7.43373345991081,-1.49525181520413,11.6760411385348
4.46014672629876,7.43448089399196,-1.49548004394975,11.661086096638
4.46051674618977,7.43522681172323,-1.49570776909946,11.6461999418865
4.46088548169085,7.43597121678941,-1.49593499188006,11.6313823386544
4.46125293596311,7.43671411286628,-1.49616171351534,11.6166329529535
4.4616191121599,7.43745550362065,-1.49638793522612,11.6019514524249
4.4619840134269,7.43819539271036,-1.49661365823023,11.5873375063316
4.46234764290207,7.43893378378433,-1.49683888374251,11.5727907855506
4.46271000371573,7.43967068048257,-1.49706361297485,11.5583109625642
4.46307109899054,7.44040608643618,-1.49728784713618,11.5438977114534
4.46343093184154,7.44114000526742,-1.49751158743247,11.5295507078891
4.46378950537615,7.44187244058967,-1.49773483506675,11.5152696291246
4.4641468226942,7.44260339600752,-1.4979575912391,11.5010541539883
4.46450288688794,7.44333287511672,-1.49817985714668,11.4869039628754
4.46485770104209,7.44406088150427,-1.49840163398373,11.4728187377408
4.4652112682338,7.44478741874839,-1.49862292294156,11.4587981620911
4.46556359153272,7.44551249041857,-1.49884372520858,11.444841920977
4.465914674001,7.44623610007557,-1.49906404197029,11.4309497009863
4.46626451869331,7.44695825127147,-1.4992838744093,11.4171211902357
4.46661312865686,7.44767894754966,-1.49950322370533,11.4033560783638
4.46696050693139,7.44839819244488,-1.49972209103521,11.3896540565237
4.46730665654924,7.44911598948323,-1.49994047757291,11.3760148173751
4.46765158053533,7.44983234218223,-1.50015838448953,11.3624380550776
4.4679952819072,7.45054725405076,-1.5003758129533,11.348923465283
4.46833776367501,7.45126072858916,-1.5005927641296,11.335470745128
4.46867902884156,7.45197276928923,-1.50080923918096,11.3220795932272
4.46901908040232,7.45268337963421,-1.50102523926709,11.3087497096657
4.46935792134543,7.45339256309885,-1.50124076554485,11.2954807959919
4.46969555465176,7.45410032314943,-1.50145581916827,11.2822725552104
4.47003198329486,7.45480666324372,-1.50167040128857,11.2691246917752
4.47036721024104,7.4555115868311,-1.50188451305417,11.256036911582
4.47070123844936,7.45621509735248,-1.50209815561065,11.2430089219617
4.47103407087163,7.45691719824038,-1.50231133010083,11.2300404316733
4.47136571045246,7.45761789291895,-1.50252403766471,11.2171311508966
4.47169616012929,7.45831718480396,-1.50273627943953,11.2042807912256
4.47202542283235,7.45901507730285,-1.50294805655973,11.1914890656617
4.47235350148471,7.45971157381473,-1.503159370157,11.1787556886065
4.47268039900233,7.4604066777304,-1.50337022136024,11.1660803758549
4.47300611829402,7.4611003924324,-1.50358061129562,11.1534628445891
4.47333066226148,7.46179272129498,-1.50379054108654,11.1409028133705
4.47365403379934,7.46248366768419,-1.50400001185366,11.1284000021342
4.47397623579514,7.46317323495781,-1.50420902471492,11.1159541321818
4.47429727112938,7.46386142646546,-1.5044175807855,11.1035649261745
4.47461714267551,7.46454824554855,-1.50462568117788,11.091232108127
4.47493585329997,7.46523369554035,-1.5048333270018,11.0789554034003
4.47525340586218,7.46591777976598,-1.50504051936432,11.0667345386957
4.47556980321459,7.46660050154244,-1.50524725936977,11.0545692420477
4.47588504820268,7.46728186417861,-1.50545354811979,11.0424592428183
4.47619914366497,7.46796187097533,-1.50565938671334,11.0304042716895
4.47651209243304,7.46864052522534,-1.50586477624668,11.0184040606575
4.47682389733157,7.46931783021336,-1.5060697178134,11.0064583430263
4.47713456117832,7.46999378921607,-1.50627421250441,10.9945668534011
4.47744408678418,7.47066840550217,-1.50647826140798,10.9827293276821
4.47775247695317,7.47134168233235,-1.50668186560969,10.9709455030579
4.47805973448244,7.47201362295936,-1.50688502619249,10.9592151179996
4.47836586216234,7.47268423062798,-1.50708774423668,10.9475379122545
4.47867086277637,7.4733535085751,-1.50729002081992,10.9359136268393
4.47897473910124,7.47402146002968,-1.50749185701723,10.9243420040347
4.47927749390689,7.47468808821279,-1.50769325390102,10.9128227873789
4.47957912995647,7.47535339633764,-1.50789421254107,10.9013557216612
4.4798796500064,7.47601738760961,-1.50809473400454,10.8899405529163
4.48017905680634,7.47668006522622,-1.50829481935601,10.8785770284181
4.48047735309927,7.47734143237719,-1.50849446965743,10.8672648966735
4.48077454162142,7.47800149224448,-1.50869368596818,10.8560039074164
4.48107062510237,7.47866024800223,-1.50889246934502,10.844793811602
4.48136560626503,7.47931770281686,-1.50909082084217,10.8336343614007
4.48165948782563,7.47997385984705,-1.50928874151125,10.8225253101919
4.48195227249379,7.48062872224375,-1.50948623240131,10.8114664125585
4.48224396297251,7.48128229315025,-1.50968329455885,10.8004574242807
4.48253456195816,7.48193457570212,-1.50987992902781,10.7894981023305
4.48282407214055,7.4825855730273,-1.51007613684957,10.7785882048654
4.4831124962029,7.48323528824609,-1.51027191906298,10.7677274912232
4.48339983682188,7.48388372447114,-1.51046727670435,10.7569157219158
4.48368609666763,7.48453088480754,-1.51066221080744,10.7461526586236
4.48397127840376,7.48517677235278,-1.51085672240352,10.73543806419
4.48425538468735,7.48582139019676,-1.51105081252131,10.7247717026152
4.48453841816902,7.48646474142186,-1.51124448218704,10.7141533390513
4.48482038149291,7.48710682910294,-1.51143773242441,10.7035827397959
4.48510127729667,7.48774765630732,-1.51163056425464,10.6930596722872
4.48538110821154,7.48838722609485,-1.51182297869645,10.6825839050979
4.48565987686232,7.4890255415179,-1.51201497676606,10.67215520793
4.48593758586738,7.48966260562139,-1.51220655947722,10.661773351609
4.48621423783872,7.4902984214428,-1.51239772784121,10.651438108079
4.48648983538193,7.49093299201219,-1.51258848286682,10.6411492503963
4.48676438109627,7.49156632035223,-1.5127788255604,10.630906552725
4.48703787757461,7.49219840947818,-1.51296875692582,10.6207097903307
4.48731032740351,7.49282926239796,-1.5131582779645,10.6105587395758
4.4875817331632,7.49345888211214,-1.51334738967544,10.6004531779138
4.48785209742761,7.49408727161396,-1.51353609305517,10.5903928838838
4.48812142276439,7.49471443388936,-1.5137243890978,10.580377637106
4.48838971173488,7.49534037191695,-1.513912278795,10.5704072182754
4.48865696689422,7.49596508866812,-1.51409976313604,10.5604814091573
4.48892319079125,7.49658858710695,-1.51428684310776,10.5505999925816
4.48918838596862,7.49721087019033,-1.51447351969458,10.5407627524379
4.48945255496276,7.49783194086788,-1.51465979387853,10.5309694736704
4.48971570030388,7.49845180208205,-1.51484566663924,10.5212199422724
4.48997782451604,7.49907045676809,-1.51503113895394,10.5115139452815
4.49023893011711,7.49968790785409,-1.51521621179748,10.5018512707743
4.49049901961883,7.50030415826098,-1.51540088614232,10.4922317078614
4.49075809552678,7.50091921090256,-1.51558516295857,10.4826550466826
4.49101616034042,7.50153306868551,-1.51576904321393,10.4731210784013
4.49127321655313,7.50214573450942,-1.51595252787377,10.4636295952001
4.49152926665216,7.50275721126678,-1.51613561790108,10.4541803902755
4.49178431311872,7.50336750184303,-1.51631831425652,10.4447732578331
4.49203835842792,7.50397660911657,-1.51650061789838,10.4354079930826
4.49229140504886,7.50458453595876,-1.51668252978263,10.4260843922326
4.49254345544458,7.50519128523394,-1.51686405086289,10.4168022524866
4.49279451207211,7.50579685979946,-1.51704518209046,10.4075613720372
4.49304457738247,7.50640126250571,-1.51722592441431,10.3983615500616
4.49329365382072,7.50700449619608,-1.5174062787811,10.3892025867172
4.4935417438259,7.50760656370705,-1.51758624613517,10.3800842831361
4.49378884983114,7.50820746786815,-1.51776582741856,10.3710064414209
4.49403497426358,7.50880721150203,-1.517945023571,10.3619688646398
4.49428011954447,7.5094057974244,-1.51812383552993,10.3529713568217
4.4945242880891,7.51000322844414,-1.5183022642305,10.344013722952
